{"learner":{"attributes":{"best_iteration":"49","best_ntree_limit":"50"},"feature_names":[],"feature_types":[],"gradient_booster":{"model":{"gbtree_model_param":{"num_parallel_tree":"1","num_trees":"50","size_leaf_vector":"0"},"tree_info":[0,0,0,0,0,0,0,0,0,0,0,0,0,0,0,0,0,0,0,0,0,0,0,0,0,0,0,0,0,0,0,0,0,0,0,0,0,0,0,0,0,0,0,0,0,0,0,0,0,0],"trees":[{"base_weights":[-7.766297E-3,-2.4076049E-1,2.809813E1,2.5353247E1,-3.2024258E-1,-4.2766297E-1,4.5299137E1,3.831433E1,-2.844608E-1,-4.932756E-1,1.6493406E0,-2.3622051E-1,5.6742035E1,-5.0881577E-1,-4.6419895E-1,3.3137966E1,-5.0055766E-1],"categories":[],"categories_nodes":[],"categories_segments":[],"categories_sizes":[],"default_left":[1,1,1,1,1,0,1,0,0,1,1,0,0,0,0,0,0],"id":0,"left_children":[1,3,5,7,9,-1,11,-1,-1,13,15,-1,-1,-1,-1,-1,-1],"loss_changes":[6.3719175E3,1.9711853E3,3.944752E3,1.00777637E3,3.290068E2,0E0,2.6186846E3,0E0,0E0,1.6416931E-1,5.2969805E3,0E0,0E0,0E0,0E0,0E0,0E0],"parents":[2147483647,0,0,1,1,2,2,3,3,4,4,6,6,9,9,10,10],"right_children":[2,4,6,8,10,-1,12,-1,-1,14,16,-1,-1,-1,-1,-1,-1],"split_conditions":[2.2126827E0,-3.9616065E0,-1.9510725E-1,-1.8536347E0,5.4802835E-1,-2.138315E-2,2.2196102E0,1.9157165E0,-1.4223041E-2,3.2993218E-1,-9.483469E-1,-1.1811025E-2,2.8371017E0,-2.5440788E-2,-2.3209948E-2,1.6568984E0,-2.5027884E-2],"split_indices":[2,35,36,26,37,0,1,0,0,42,36,0,0,0,0,0,0],"split_type":[0,0,0,0,0,0,0,0,0,0,0,0,0,0,0,0,0],"sum_hessian":[9.71E2,9.64E2,7E0,2E0,9.62E2,3E0,4E0,1E0,1E0,8.85E2,7.7E1,1E0,3E0,5.66E2,3.19E2,4E0,7.3E1],"tree_param":{"num_deleted":"0","num_feature":"46","num_nodes":"17","size_leaf_vector":"0"}},{"base_weights":[-9.0821984E-4,-2.2511138E-1,2.704371E1,2.4719416E1,-3.025864E-1,-4.1162562E-1,4.359924E1,3.7356472E1,-2.773493E-1,-4.6866673E-1,1.587795E0,-2.30315E-1,5.4614204E1,-5.0365764E-1,-4.5526195E-1,3.1812449E1,-4.75868E-1],"categories":[],"categories_nodes":[],"categories_segments":[],"categories_sizes":[],"default_left":[1,1,1,1,1,0,1,0,0,1,1,0,0,0,0,0,0],"id":1,"left_children":[1,3,5,7,9,-1,11,-1,-1,13,15,-1,-1,-1,-1,-1,-1],"loss_changes":[5.899799E3,1.8724178E3,3.654246E3,9.5801733E2,3.0308298E2,0E0,2.4264854E3,0E0,0E0,1.862793E-1,4.8802715E3,0E0,0E0,0E0,0E0,0E0,0E0],"parents":[2147483647,0,0,1,1,2,2,3,3,4,4,6,6,9,9,10,10],"right_children":[2,4,6,8,10,-1,12,-1,-1,14,16,-1,-1,-1,-1,-1,-1],"split_conditions":[2.2126827E0,-3.9616065E0,-1.9510725E-1,-1.8536347E0,5.4802835E-1,-2.058128E-2,2.2196102E0,1.8678236E0,-1.3867465E-2,-7.741778E-1,-9.483469E-1,-1.1515751E-2,2.7307103E0,-2.5182882E-2,-2.2763098E-2,1.5906224E0,-2.37934E-2],"split_indices":[2,35,36,26,37,0,1,0,0,44,36,0,0,0,0,0,0],"split_type":[0,0,0,0,0,0,0,0,0,0,0,0,0,0,0,0,0],"sum_hessian":[9.71E2,9.64E2,7E0,2E0,9.62E2,3E0,4E0,1E0,1E0,8.85E2,7.7E1,1E0,3E0,2.35E2,6.5E2,4E0,7.3E1],"tree_param":{"num_deleted":"0","num_feature":"46","num_nodes":"17","size_leaf_vector":"0"}},{"base_weights":[5.3835623E-3,-2.1036063E-1,2.6028854E1,2.410143E1,-2.8587985E-1,-3.9618966E-1,4.1963116E1,3.642256E1,-2.7041557E-1,-4.4528753E-1,1.5284928E0,-2.2455713E-1,5.2566177E1,-4.7858146E-1,-4.3253383E-1,3.0539951E1,-4.5239612E-1],"categories":[],"categories_nodes":[],"categories_segments":[],"categories_sizes":[],"default_left":[1,1,1,1,1,0,1,0,0,1,1,0,0,0,0,0,0],"id":2,"left_children":[1,3,5,7,9,-1,11,-1,-1,13,15,-1,-1,-1,-1,-1,-1],"loss_changes":[5.462684E3,1.7786375E3,3.3851348E3,9.1071545E2,2.7920422E2,0E0,2.2483955E3,0E0,0E0,1.6921997E-1,4.4963574E3,0E0,0E0,0E0,0E0,0E0,0E0],"parents":[2147483647,0,0,1,1,2,2,3,3,4,4,6,6,9,9,10,10],"right_children":[2,4,6,8,10,-1,12,-1,-1,14,16,-1,-1,-1,-1,-1,-1],"split_conditions":[2.2126827E0,-3.9616065E0,-1.9510725E-1,-1.8536347E0,5.4802835E-1,-1.9809483E-2,2.2196102E0,1.8211281E0,-1.3520779E-2,-7.741778E-1,-9.483469E-1,-1.1227856E-2,2.628309E0,-2.3929073E-2,-2.1626692E-2,1.5269976E0,-2.2619806E-2],"split_indices":[2,35,36,26,37,0,1,0,0,44,36,0,0,0,0,0,0],"split_type":[0,0,0,0,0,0,0,0,0,0,0,0,0,0,0,0,0],"sum_hessian":[9.71E2,9.64E2,7E0,2E0,9.62E2,3E0,4E0,1E0,1E0,8.85E2,7.7E1,1E0,3E0,2.35E2,6.5E2,4E0,7.3E1],"tree_param":{"num_deleted":"0","num_feature":"46","num_nodes":"17","size_leaf_vector":"0"}},{"base_weights":[1.1146975E-2,-1.9645771E-1,2.5052069E1,2.3498894E1,-2.70071E-1,-3.8133255E-1,4.038838E1,3.5511997E1,-2.636552E-1,-4.2307457E-1,1.4713551E0,-2.1894321E-1,5.059494E1,-4.3777582E-1,-3.957037E-1,2.9318352E1,-4.3008196E-1],"categories":[],"categories_nodes":[],"categories_segments":[],"categories_sizes":[],"default_left":[1,1,1,1,1,0,1,0,0,1,1,0,0,0,0,0,0],"id":3,"left_children":[1,3,5,7,9,-1,11,-1,-1,13,15,-1,-1,-1,-1,-1,-1],"loss_changes":[5.057973E3,1.689589E3,3.135837E3,8.6574866E2,2.5720844E2,0E0,2.0833838E3,0E0,0E0,1.8328857E-1,4.1426562E3,0E0,0E0,0E0,0E0,0E0,0E0],"parents":[2147483647,0,0,1,1,2,2,3,3,4,4,6,6,9,9,10,10],"right_children":[2,4,6,8,10,-1,12,-1,-1,14,16,-1,-1,-1,-1,-1,-1],"split_conditions":[2.2126827E0,-3.9616065E0,-1.9510725E-1,-1.8536347E0,5.4802835E-1,-1.9066628E-2,2.2196102E0,1.7755998E0,-1.3182759E-2,3.2993218E-1,-9.483469E-1,-1.094716E-2,2.529747E0,-2.188879E-2,-1.9785186E-2,1.4659176E0,-2.1504099E-2],"split_indices":[2,35,36,26,37,0,1,0,0,42,36,0,0,0,0,0,0],"split_type":[0,0,0,0,0,0,0,0,0,0,0,0,0,0,0,0,0],"sum_hessian":[9.71E2,9.64E2,7E0,2E0,9.62E2,3E0,4E0,1E0,1E0,8.85E2,7.7E1,1E0,3E0,5.66E2,3.19E2,4E0,7.3E1],"tree_param":{"num_deleted":"0","num_feature":"46","num_nodes":"17","size_leaf_vector":"0"}},{"base_weights":[1.6417716E-2,-1.8335485E-1,2.4111933E1,2.291142E1,-2.551108E-1,-3.670326E-1,3.887272E1,3.4624195E1,-2.570638E-1,-4.0196788E-1,1.4163055E0,-2.1346962E-1,4.869763E1,-4.3362626E-1,-3.8987362E-1,2.814562E1,-4.0886846E-1],"categories":[],"categories_nodes":[],"categories_segments":[],"categories_sizes":[],"default_left":[1,1,1,1,1,0,1,0,0,1,1,0,0,0,0,0,0],"id":4,"left_children":[1,3,5,7,9,-1,11,-1,-1,13,15,-1,-1,-1,-1,-1,-1],"loss_changes":[4.683262E3,1.6050308E3,2.9048975E3,8.230021E2,2.3694664E2,0E0,1.9304873E3,0E0,0E0,1.7016602E-1,3.8167886E3,0E0,0E0,0E0,0E0,0E0,0E0],"parents":[2147483647,0,0,1,1,2,2,3,3,4,4,6,6,9,9,10,10],"right_children":[2,4,6,8,10,-1,12,-1,-1,14,16,-1,-1,-1,-1,-1,-1],"split_conditions":[2.2126827E0,-3.9616065E0,-1.9510725E-1,-1.8536347E0,5.4802835E-1,-1.835163E-2,2.2196102E0,1.7312098E0,-1.285319E-2,-7.741778E-1,-9.483469E-1,-1.0673481E-2,2.4348817E0,-2.1681314E-2,-1.9493682E-2,1.407281E0,-2.0443423E-2],"split_indices":[2,35,36,26,37,0,1,0,0,44,36,0,0,0,0,0,0],"split_type":[0,0,0,0,0,0,0,0,0,0,0,0,0,0,0,0,0],"sum_hessian":[9.71E2,9.64E2,7E0,2E0,9.62E2,3E0,4E0,1E0,1E0,8.85E2,7.7E1,1E0,3E0,2.35E2,6.5E2,4E0,7.3E1],"tree_param":{"num_deleted":"0","num_feature":"46","num_nodes":"17","size_leaf_vector":"0"}},{"base_weights":[2.1224244E-2,-1.7101198E-1,2.3207067E1,2.2338636E1,-2.4095792E-1,-3.5326886E-1,3.741392E1,3.375859E1,-2.506372E-1,-3.8191596E-1,1.36327E0,-2.0813288E-1,4.6871468E1,-3.7636128E-1,-4.533965E-1,-5.8742505E-1,2.4869514E1],"categories":[],"categories_nodes":[],"categories_segments":[],"categories_sizes":[],"default_left":[1,1,1,1,1,0,1,0,0,1,1,0,0,0,0,0,0],"id":5,"left_children":[1,3,5,7,9,-1,11,-1,-1,13,15,-1,-1,-1,-1,-1,-1],"loss_changes":[4.3363276E3,1.5247349E3,2.690963E3,7.823667E2,2.1828271E2,0E0,1.7888174E3,0E0,0E0,1.8115234E-1,3.5911833E3,0E0,0E0,0E0,0E0,0E0,0E0],"parents":[2147483647,0,0,1,1,2,2,3,3,4,4,6,6,9,9,10,10],"right_children":[2,4,6,8,10,-1,12,-1,-1,14,16,-1,-1,-1,-1,-1,-1],"split_conditions":[2.2126827E0,-3.9616065E0,-1.9510725E-1,-1.8536347E0,5.4802835E-1,-1.7663443E-2,2.2196102E0,1.6879295E0,-1.2531861E-2,2.0768116E0,4.7246403E-1,-1.0406644E-2,2.3435733E0,-1.8818064E-2,-2.2669826E-2,-2.9371252E-2,1.2434758E0],"split_indices":[2,35,36,26,37,0,1,0,0,3,30,0,0,0,0,0,0],"split_type":[0,0,0,0,0,0,0,0,0,0,0,0,0,0,0,0,0],"sum_hessian":[9.71E2,9.64E2,7E0,2E0,9.62E2,3E0,4E0,1E0,1E0,8.85E2,7.7E1,1E0,3E0,8.27E2,5.8E1,7.2E1,5E0],"tree_param":{"num_deleted":"0","num_feature":"46","num_nodes":"17","size_leaf_vector":"0"}},{"base_weights":[2.5475292E-2,-1.5951009E-1,2.2336153E1,2.178017E1,-2.2769237E-1,-3.4002128E-1,3.600986E1,3.2914627E1,-2.443713E-1,-3.62867E-1,1.3106719E0,-2.0292956E-1,4.5113792E1,-3.767776E-1,-3.3745387E-1,2.653415E1,-4.1132888E-1],"categories":[],"categories_nodes":[],"categories_segments":[],"categories_sizes":[],"default_left":[1,1,1,1,1,0,1,0,0,1,1,0,0,0,0,0,0],"id":6,"left_children":[1,3,5,7,9,-1,11,-1,-1,13,15,-1,-1,-1,-1,-1,-1],"loss_changes":[4.0151519E3,1.4485E3,2.492783E3,7.437373E2,2.0072937E2,0E0,1.6575488E3,0E0,0E0,1.8606567E-1,3.3988325E3,0E0,0E0,0E0,0E0,0E0,0E0],"parents":[2147483647,0,0,1,1,2,2,3,3,4,4,6,6,9,9,10,10],"right_children":[2,4,6,8,10,-1,12,-1,-1,14,16,-1,-1,-1,-1,-1,-1],"split_conditions":[2.2126827E0,-3.9616065E0,-1.9510725E-1,-1.8536347E0,5.4802835E-1,-1.7001064E-2,2.2196102E0,1.6457313E0,-1.2218565E-2,3.1962815E-1,-9.483469E-1,-1.0146478E-2,2.2556896E0,-1.883888E-2,-1.6872695E-2,1.3267075E0,-2.0566445E-2],"split_indices":[2,35,36,26,37,0,1,0,0,42,36,0,0,0,0,0,0],"split_type":[0,0,0,0,0,0,0,0,0,0,0,0,0,0,0,0,0],"sum_hessian":[9.71E2,9.64E2,7E0,2E0,9.62E2,3E0,4E0,1E0,1E0,8.85E2,7.7E1,1E0,3E0,5.63E2,3.22E2,4E0,7.3E1],"tree_param":{"num_deleted":"0","num_feature":"46","num_nodes":"17","size_leaf_vector":"0"}},{"base_weights":[2.9481875E-2,-1.4852531E-1,2.1497913E1,2.1235666E1,-2.149885E-1,-3.2727048E-1,3.4658478E1,3.2091763E1,-2.38262E-1,-3.4476396E-1,1.2618839E0,-1.9785632E-1,4.3422028E1,-3.7518096E-1,-3.332076E-1,-5.75083E-1,2.3401333E1],"categories":[],"categories_nodes":[],"categories_segments":[],"categories_sizes":[],"default_left":[1,1,1,1,1,0,1,0,0,1,1,0,0,0,0,0,0],"id":7,"left_children":[1,3,5,7,9,-1,11,-1,-1,13,15,-1,-1,-1,-1,-1,-1],"loss_changes":[3.717725E3,1.3760829E3,2.3091963E3,7.0701526E2,1.8500534E2,0E0,1.535917E3,0E0,0E0,1.8643188E-1,3.1856736E3,0E0,0E0,0E0,0E0,0E0,0E0],"parents":[2147483647,0,0,1,1,2,2,3,3,4,4,6,6,9,9,10,10],"right_children":[2,4,6,8,10,-1,12,-1,-1,14,16,-1,-1,-1,-1,-1,-1],"split_conditions":[2.2126827E0,-3.9616065E0,-1.9510725E-1,-1.8536347E0,5.4802835E-1,-1.6363524E-2,2.2196102E0,1.6045882E0,-1.19131E-2,-7.741778E-1,4.7246403E-1,-9.892817E-3,2.1711013E0,-1.8759048E-2,-1.6660381E-2,-2.875415E-2,1.1700667E0],"split_indices":[2,35,36,26,37,0,1,0,0,44,30,0,0,0,0,0,0],"split_type":[0,0,0,0,0,0,0,0,0,0,0,0,0,0,0,0,0],"sum_hessian":[9.71E2,9.64E2,7E0,2E0,9.62E2,3E0,4E0,1E0,1E0,8.85E2,7.7E1,1E0,3E0,2.35E2,6.5E2,7.2E1,5E0],"tree_param":{"num_deleted":"0","num_feature":"46","num_nodes":"17","size_leaf_vector":"0"}},{"base_weights":[3.299071E-2,-1.383026E-1,2.0691122E1,2.0704775E1,-2.0309068E-1,-3.1499785E-1,3.3357796E1,3.1289467E1,-2.3230547E-1,2.3392947E0,-2.733454E-1,-1.9290991E-1,4.1793697E1,-2.9932553E-1,3.41524E1,-2.5397393E-1,-6.2261357E0],"categories":[],"categories_nodes":[],"categories_segments":[],"categories_sizes":[],"default_left":[1,1,1,1,1,0,1,0,0,1,1,0,0,0,0,0,0],"id":8,"left_children":[1,3,5,7,9,-1,11,-1,-1,13,15,-1,-1,-1,-1,-1,-1],"loss_changes":[3.4423806E3,1.3073247E3,2.1391287E3,6.721063E2,1.726453E2,0E0,1.4232148E3,0E0,0E0,2.1927332E3,1.0658364E2,0E0,0E0,0E0,0E0,0E0,0E0],"parents":[2147483647,0,0,1,1,2,2,3,3,4,4,6,6,9,9,10,10],"right_children":[2,4,6,8,10,-1,12,-1,-1,14,16,-1,-1,-1,-1,-1,-1],"split_conditions":[2.2126827E0,-3.9616065E0,-1.9510725E-1,-1.8536347E0,-2.013381E0,-1.5749892E-2,2.2196102E0,1.5644734E0,-1.1615274E-2,-2.0195224E0,4.203381E0,-9.645496E-3,2.089685E0,-1.49662765E-2,1.70762E0,-1.2698697E-2,-3.113068E-1],"split_indices":[2,35,36,26,31,0,1,0,0,31,37,0,0,0,0,0,0],"split_type":[0,0,0,0,0,0,0,0,0,0,0,0,0,0,0,0,0],"sum_hessian":[9.71E2,9.64E2,7E0,2E0,9.62E2,3E0,4E0,1E0,1E0,2.5E1,9.37E2,1E0,3E0,2.4E1,1E0,9.35E2,2E0],"tree_param":{"num_deleted":"0","num_feature":"46","num_nodes":"17","size_leaf_vector":"0"}},{"base_weights":[3.6470618E-2,-1.2835999E-1,1.9914602E1,2.0187155E1,-1.915149E-1,-3.031854E-1,3.210591E1,3.050723E1,-2.2649783E-1,-3.1481993E-1,1.211559E0,-1.8808717E-1,4.0226433E1,-3.0952945E-1,-3.8372985E-1,2.48018E1,-3.9874852E-1],"categories":[],"categories_nodes":[],"categories_segments":[],"categories_sizes":[],"default_left":[1,1,1,1,1,0,1,0,0,1,1,0,0,0,0,0,0],"id":9,"left_children":[1,3,5,7,9,-1,11,-1,-1,13,15,-1,-1,-1,-1,-1,-1],"loss_changes":[3.187338E3,1.241985E3,1.9815847E3,6.3892114E2,1.6698625E2,0E0,1.3187866E3,0E0,0E0,2.0423889E-1,2.972918E3,0E0,0E0,0E0,0E0,0E0,0E0],"parents":[2147483647,0,0,1,1,2,2,3,3,4,4,6,6,9,9,10,10],"right_children":[2,4,6,8,10,-1,12,-1,-1,14,16,-1,-1,-1,-1,-1,-1],"split_conditions":[2.2126827E0,-3.9616065E0,-1.9510725E-1,-1.8536347E0,5.4802835E-1,-1.5159271E-2,2.2196102E0,1.5253615E0,-1.1324892E-2,2.0768116E0,-9.483469E-1,-9.404358E-3,2.0113218E0,-1.5476473E-2,-1.9186493E-2,1.24009E0,-1.9937426E-2],"split_indices":[2,35,36,26,37,0,1,0,0,3,36,0,0,0,0,0,0],"split_type":[0,0,0,0,0,0,0,0,0,0,0,0,0,0,0,0,0],"sum_hessian":[9.71E2,9.64E2,7E0,2E0,9.62E2,3E0,4E0,1E0,1E0,8.85E2,7.7E1,1E0,3E0,8.27E2,5.8E1,4E0,7.3E1],"tree_param":{"num_deleted":"0","num_feature":"46","num_nodes":"17","size_leaf_vector":"0"}},{"base_weights":[3.946836E-2,-1.1914455E-1,1.9167217E1,1.9682476E1,-1.8070813E-1,-2.9181597E-1,3.0901001E1,2.9744549E1,-2.2083539E-1,2.2540224E0,-2.4800266E-1,-1.8338498E-1,3.871794E1,-2.7010047E-1,3.2678547E1,-2.2659245E-1,-6.8453245E0],"categories":[],"categories_nodes":[],"categories_segments":[],"categories_sizes":[],"default_left":[1,1,1,1,1,0,1,0,0,1,1,0,0,0,0,0,0],"id":10,"left_children":[1,3,5,7,9,-1,11,-1,-1,13,15,-1,-1,-1,-1,-1,-1],"loss_changes":[2.9512422E3,1.1799481E3,1.8356418E3,6.0737427E2,1.5834085E2,0E0,1.2220249E3,0E0,0E0,2.0055028E3,1.3094153E2,0E0,0E0,0E0,0E0,0E0,0E0],"parents":[2147483647,0,0,1,1,2,2,3,3,4,4,6,6,9,9,10,10],"right_children":[2,4,6,8,10,-1,12,-1,-1,14,16,-1,-1,-1,-1,-1,-1],"split_conditions":[2.2126827E0,-3.9616065E0,-1.9510725E-1,-1.8536347E0,-2.013381E0,-1.4590799E-2,2.2196102E0,1.4872274E0,-1.104177E-2,-2.0195224E0,4.203381E0,-9.16925E-3,1.9358971E0,-1.3505024E-2,1.6339273E0,-1.1329623E-2,-3.4226623E-1],"split_indices":[2,35,36,26,31,0,1,0,0,31,37,0,0,0,0,0,0],"split_type":[0,0,0,0,0,0,0,0,0,0,0,0,0,0,0,0,0],"sum_hessian":[9.71E2,9.64E2,7E0,2E0,9.62E2,3E0,4E0,1E0,1E0,2.5E1,9.37E2,1E0,3E0,2.4E1,1E0,9.35E2,2E0],"tree_param":{"num_deleted":"0","num_feature":"46","num_nodes":"17","size_leaf_vector":"0"}},{"base_weights":[4.2284187E-2,-1.1034483E-1,1.8447874E1,1.9190414E1,-1.7035721E-1,-2.8087285E-1,2.9741295E1,2.9000937E1,-2.1531451E-1,-2.877423E-1,1.165201E0,-1.7880036E-1,3.726602E1,-2.799871E-1,-3.30301E-1,2.3622114E1,-3.67904E-1],"categories":[],"categories_nodes":[],"categories_segments":[],"categories_sizes":[],"default_left":[1,1,1,1,1,0,1,0,0,1,1,0,0,0,0,0,0],"id":11,"left_children":[1,3,5,7,9,-1,11,-1,-1,13,15,-1,-1,-1,-1,-1,-1],"loss_changes":[2.7326042E3,1.1210139E3,1.7004468E3,5.773854E2,1.5130922E2,0E0,1.1323652E3,0E0,0E0,1.9994354E-1,2.6941375E3,0E0,0E0,0E0,0E0,0E0,0E0],"parents":[2147483647,0,0,1,1,2,2,3,3,4,4,6,6,9,9,10,10],"right_children":[2,4,6,8,10,-1,12,-1,-1,14,16,-1,-1,-1,-1,-1,-1],"split_conditions":[2.2126827E0,-3.9616065E0,-1.9510725E-1,-1.8536347E0,5.4802835E-1,-1.4043643E-2,2.2196102E0,1.4500469E0,-1.0765726E-2,1.4583197E0,-9.483469E-1,-8.940018E-3,1.8633012E0,-1.3999355E-2,-1.651505E-2,1.1811057E0,-1.83952E-2],"split_indices":[2,35,36,26,37,0,1,0,0,6,36,0,0,0,0,0,0],"split_type":[0,0,0,0,0,0,0,0,0,0,0,0,0,0,0,0,0],"sum_hessian":[9.71E2,9.64E2,7E0,2E0,9.62E2,3E0,4E0,1E0,1E0,8.85E2,7.7E1,1E0,3E0,7.55E2,1.3E2,4E0,7.3E1],"tree_param":{"num_deleted":"0","num_feature":"46","num_nodes":"17","size_leaf_vector":"0"}},{"base_weights":[4.470885E-2,-1.0216285E-1,1.775552E1,1.8710655E1,-1.6066366E-1,-2.7034014E-1,2.8625103E1,2.8275913E1,-2.0993164E-1,-1.3788289E-1,-7.404551E0,-1.7433035E-1,3.5868546E1,-2.7338964E-1,1.4436547E0],"categories":[],"categories_nodes":[],"categories_segments":[],"categories_sizes":[],"default_left":[1,1,1,1,1,0,1,0,0,1,0,0,0,0,0],"id":12,"left_children":[1,3,5,7,9,-1,11,-1,-1,13,-1,-1,-1,-1,-1],"loss_changes":[2.530197E3,1.0650516E3,1.5752075E3,5.4887695E2,1.578946E2,0E0,1.0492876E3,0E0,0E0,2.0634563E2,0E0,0E0,0E0,0E0,0E0],"parents":[2147483647,0,0,1,1,2,2,3,3,4,4,6,6,9,9],"right_children":[2,4,6,8,10,-1,12,-1,-1,14,-1,-1,-1,-1,-1],"split_conditions":[2.2126827E0,-3.9616065E0,-1.9510725E-1,-1.8536347E0,4.203381E0,-1.3517007E-2,2.2196102E0,1.4137957E0,-1.0496582E-2,5.4802835E-1,-3.7022755E-1,-8.716518E-3,1.7934273E0,-1.3669482E-2,7.218274E-2],"split_indices":[2,35,36,26,37,0,1,0,0,37,0,0,0,0,0],"split_type":[0,0,0,0,0,0,0,0,0,0,0,0,0,0,0],"sum_hessian":[9.71E2,9.64E2,7E0,2E0,9.62E2,3E0,4E0,1E0,1E0,9.6E2,2E0,1E0,3E0,8.85E2,7.5E1],"tree_param":{"num_deleted":"0","num_feature":"46","num_nodes":"15","size_leaf_vector":"0"}},{"base_weights":[4.541867E-2,-9.592352E-2,1.7089144E1,1.8242887E1,-1.5295416E-1,-2.6020238E-1,2.755079E1,2.7569016E1,-2.0468333E-1,-1.3092785E-1,-7.1577325E0,-1.6997209E-1,3.4523476E1,-2.5973558E-1,1.3724217E0],"categories":[],"categories_nodes":[],"categories_segments":[],"categories_sizes":[],"default_left":[1,1,1,1,1,0,1,0,0,1,0,0,0,0,0],"id":13,"left_children":[1,3,5,7,9,-1,11,-1,-1,13,-1,-1,-1,-1,-1],"loss_changes":[2.3431848E3,1.012059E3,1.4591907E3,5.21776E2,1.4764359E2,0E0,9.723086E2,0E0,0E0,1.8644742E2,0E0,0E0,0E0,0E0,0E0],"parents":[2147483647,0,0,1,1,2,2,3,3,4,4,6,6,9,9],"right_children":[2,4,6,8,10,-1,12,-1,-1,14,-1,-1,-1,-1,-1],"split_conditions":[2.2126827E0,-3.9616065E0,-1.9510725E-1,-1.8536347E0,4.203381E0,-1.3010119E-2,2.2196102E0,1.3784508E0,-1.0234167E-2,5.4802835E-1,-3.5788664E-1,-8.498604E-3,1.7261738E0,-1.2986779E-2,6.862109E-2],"split_indices":[2,35,36,26,37,0,1,0,0,37,0,0,0,0,0],"split_type":[0,0,0,0,0,0,0,0,0,0,0,0,0,0,0],"sum_hessian":[9.71E2,9.64E2,7E0,2E0,9.62E2,3E0,4E0,1E0,1E0,9.6E2,2E0,1E0,3E0,8.85E2,7.5E1],"tree_param":{"num_deleted":"0","num_feature":"46","num_nodes":"15","size_leaf_vector":"0"}},{"base_weights":[4.599817E-2,-9.002273E-2,1.644777E1,1.7786818E1,-1.4562033E-1,-2.504448E-1,2.6516787E1,2.6879791E1,-1.9956625E-1,2.1908145E0,-2.1022767E-1,-1.6572279E-1,3.3228844E1,-2.1760315E-1,3.1200628E1,-1.8850014E-1,-6.9191413E0],"categories":[],"categories_nodes":[],"categories_segments":[],"categories_sizes":[],"default_left":[1,1,1,1,1,0,1,0,0,1,1,0,0,0,0,0,0],"id":14,"left_children":[1,3,5,7,9,-1,11,-1,-1,13,15,-1,-1,-1,-1,-1,-1],"loss_changes":[2.1699968E3,9.617128E2,1.351718E3,4.9601355E2,1.4582623E2,0E0,9.0097925E2,0E0,0E0,1.8233508E3,1.3542624E2,0E0,0E0,0E0,0E0,0E0,0E0],"parents":[2147483647,0,0,1,1,2,2,3,3,4,4,6,6,9,9,10,10],"right_children":[2,4,6,8,10,-1,12,-1,-1,14,16,-1,-1,-1,-1,-1,-1],"split_conditions":[2.2126827E0,-3.9616065E0,-1.9510725E-1,-1.8536347E0,-2.013381E0,-1.252224E-2,2.2196102E0,1.3439896E0,-9.978312E-3,-2.0195224E0,4.203381E0,-8.28614E-3,1.6614422E0,-1.0880157E-2,1.5600314E0,-9.425007E-3,-3.4595707E-1],"split_indices":[2,35,36,26,31,0,1,0,0,31,37,0,0,0,0,0,0],"split_type":[0,0,0,0,0,0,0,0,0,0,0,0,0,0,0,0,0],"sum_hessian":[9.71E2,9.64E2,7E0,2E0,9.62E2,3E0,4E0,1E0,1E0,2.5E1,9.37E2,1E0,3E0,2.4E1,1E0,9.35E2,2E0],"tree_param":{"num_deleted":"0","num_feature":"46","num_nodes":"17","size_leaf_vector":"0"}},{"base_weights":[4.7986764E-2,-8.290212E-2,1.5830461E1,1.7342144E1,-1.3709967E-1,-2.410531E-1,2.5521578E1,2.6207794E1,-1.945771E-1,2.1408565E0,-2.0009515E-1,-1.6157971E-1,3.1982763E1,-2.071582E-1,3.0420612E1,-1.790852E-1,-6.6885037E0],"categories":[],"categories_nodes":[],"categories_segments":[],"categories_sizes":[],"default_left":[1,1,1,1,1,0,1,0,0,1,1,0,0,0,0,0,0],"id":15,"left_children":[1,3,5,7,9,-1,11,-1,-1,13,15,-1,-1,-1,-1,-1,-1],"loss_changes":[2.0092217E3,9.1371857E2,1.2521595E3,4.7152264E2,1.3861978E2,0E0,8.34886E2,0E0,0E0,1.7327352E3,1.2667146E2,0E0,0E0,0E0,0E0,0E0,0E0],"parents":[2147483647,0,0,1,1,2,2,3,3,4,4,6,6,9,9,10,10],"right_children":[2,4,6,8,10,-1,12,-1,-1,14,16,-1,-1,-1,-1,-1,-1],"split_conditions":[2.2126827E0,-3.9616065E0,-1.9510725E-1,-1.8536347E0,-2.013381E0,-1.2052655E-2,2.2196102E0,1.3103898E0,-9.728855E-3,-2.0195224E0,4.203381E0,-8.078986E-3,1.5991381E0,-1.035791E-2,1.5210307E0,-8.95426E-3,-3.3442518E-1],"split_indices":[2,35,36,26,31,0,1,0,0,31,37,0,0,0,0,0,0],"split_type":[0,0,0,0,0,0,0,0,0,0,0,0,0,0,0,0,0],"sum_hessian":[9.71E2,9.64E2,7E0,2E0,9.62E2,3E0,4E0,1E0,1E0,2.5E1,9.37E2,1E0,3E0,2.4E1,1E0,9.35E2,2E0],"tree_param":{"num_deleted":"0","num_feature":"46","num_nodes":"17","size_leaf_vector":"0"}},{"base_weights":[4.9750965E-2,-7.6199554E-2,1.5236314E1,1.6908592E1,-1.2903255E-1,-2.3201361E-1,2.4563713E1,2.55526E1,-1.8971267E-1,2.0919166E0,-1.9045648E-1,-1.5754022E-1,3.0783411E1,-1.972146E-1,2.9660097E1,-1.701405E-1,-6.4655538E0],"categories":[],"categories_nodes":[],"categories_segments":[],"categories_sizes":[],"default_left":[1,1,1,1,1,0,1,0,0,1,1,0,0,0,0,0,0],"id":16,"left_children":[1,3,5,7,9,-1,11,-1,-1,13,15,-1,-1,-1,-1,-1,-1],"loss_changes":[1.8603593E3,8.681317E2,1.1599332E3,4.482414E2,1.3177031E2,0E0,7.736433E2,0E0,0E0,1.6466361E3,1.18480576E2,0E0,0E0,0E0,0E0,0E0,0E0],"parents":[2147483647,0,0,1,1,2,2,3,3,4,4,6,6,9,9,10,10],"right_children":[2,4,6,8,10,-1,12,-1,-1,14,16,-1,-1,-1,-1,-1,-1],"split_conditions":[2.2126827E0,-3.9616065E0,-1.9510725E-1,-1.8536347E0,-2.013381E0,-1.1600681E-2,2.2196102E0,1.2776301E0,-9.485634E-3,-2.0195224E0,4.203381E0,-7.877011E-3,1.5391706E0,-9.860731E-3,1.4830049E0,-8.507025E-3,-3.2327768E-1],"split_indices":[2,35,36,26,31,0,1,0,0,31,37,0,0,0,0,0,0],"split_type":[0,0,0,0,0,0,0,0,0,0,0,0,0,0,0,0,0],"sum_hessian":[9.71E2,9.64E2,7E0,2E0,9.62E2,3E0,4E0,1E0,1E0,2.5E1,9.37E2,1E0,3E0,2.4E1,1E0,9.35E2,2E0],"tree_param":{"num_deleted":"0","num_feature":"46","num_nodes":"17","size_leaf_vector":"0"}},{"base_weights":[5.13058E-2,-6.989268E-2,1.466446E1,1.6485876E1,-1.2139571E-1,-2.2331312E-1,2.3641787E1,2.4913784E1,-1.8496984E-1,2.0439801E0,-1.8128736E-1,-1.536017E-1,2.9629034E1,-1.877483E-1,2.8918594E1,-1.6164257E-1,-6.2500353E0],"categories":[],"categories_nodes":[],"categories_segments":[],"categories_sizes":[],"default_left":[1,1,1,1,1,0,1,0,0,1,1,0,0,0,0,0,0],"id":17,"left_children":[1,3,5,7,9,-1,11,-1,-1,13,15,-1,-1,-1,-1,-1,-1],"loss_changes":[1.7225265E3,8.2482996E2,1.0744988E3,4.261095E2,1.2526004E2,0E0,7.1689526E2,0E0,0E0,1.5648271E3,1.1081746E2,0E0,0E0,0E0,0E0,0E0,0E0],"parents":[2147483647,0,0,1,1,2,2,3,3,4,4,6,6,9,9,10,10],"right_children":[2,4,6,8,10,-1,12,-1,-1,14,16,-1,-1,-1,-1,-1,-1],"split_conditions":[2.2126827E0,-3.9616065E0,-1.9510725E-1,-1.8536347E0,-2.013381E0,-1.1165656E-2,2.2196102E0,1.2456893E0,-9.248492E-3,-2.0195224E0,4.203381E0,-7.6800855E-3,1.4814517E0,-9.387415E-3,1.4459298E0,-8.082128E-3,-3.1250176E-1],"split_indices":[2,35,36,26,31,0,1,0,0,31,37,0,0,0,0,0,0],"split_type":[0,0,0,0,0,0,0,0,0,0,0,0,0,0,0,0,0],"sum_hessian":[9.71E2,9.64E2,7E0,2E0,9.62E2,3E0,4E0,1E0,1E0,2.5E1,9.37E2,1E0,3E0,2.4E1,1E0,9.35E2,2E0],"tree_param":{"num_deleted":"0","num_feature":"46","num_nodes":"17","size_leaf_vector":"0"}},{"base_weights":[5.266541E-2,-6.3960336E-2,1.4114062E1,1.6073729E1,-1.14167094E-1,-2.1493888E-1,2.2754452E1,2.429094E1,-1.803456E-1,1.9970326E0,-1.7256477E-1,-1.4976166E-1,2.8517944E1,-1.7873637E-1,2.819563E1,-1.5356907E-1,-6.041701E0],"categories":[],"categories_nodes":[],"categories_segments":[],"categories_sizes":[],"default_left":[1,1,1,1,1,0,1,0,0,1,1,0,0,0,0,0,0],"id":18,"left_children":[1,3,5,7,9,-1,11,-1,-1,13,15,-1,-1,-1,-1,-1,-1],"loss_changes":[1.5949059E3,7.836984E2,9.9535596E2,4.0507025E2,1.1907208E2,0E0,6.6431226E2,0E0,0E0,1.4870941E3,1.0364824E2,0E0,0E0,0E0,0E0,0E0,0E0],"parents":[2147483647,0,0,1,1,2,2,3,3,4,4,6,6,9,9,10,10],"right_children":[2,4,6,8,10,-1,12,-1,-1,14,16,-1,-1,-1,-1,-1,-1],"split_conditions":[2.2126827E0,-3.9616065E0,-1.9510725E-1,-1.8536347E0,-2.013381E0,-1.0746944E-2,2.2196102E0,1.214547E0,-9.01728E-3,-2.0195224E0,4.203381E0,-7.488083E-3,1.4258972E0,-8.936819E-3,1.4097815E0,-7.678454E-3,-3.0208504E-1],"split_indices":[2,35,36,26,31,0,1,0,0,31,37,0,0,0,0,0,0],"split_type":[0,0,0,0,0,0,0,0,0,0,0,0,0,0,0,0,0],"sum_hessian":[9.71E2,9.64E2,7E0,2E0,9.62E2,3E0,4E0,1E0,1E0,2.5E1,9.37E2,1E0,3E0,2.4E1,1E0,9.35E2,2E0],"tree_param":{"num_deleted":"0","num_feature":"46","num_nodes":"17","size_leaf_vector":"0"}},{"base_weights":[5.3843115E-2,-5.8382418E-2,1.3584317E1,1.5671886E1,-1.0732574E-1,-2.0687868E-1,2.1900412E1,2.3683666E1,-1.7583695E-1,1.9510596E0,-1.6426678E-1,-1.4601763E-1,2.7448523E1,-1.7015703E-1,2.7490738E1,-1.4589883E-1,-5.8403106E0],"categories":[],"categories_nodes":[],"categories_segments":[],"categories_sizes":[],"default_left":[1,1,1,1,1,0,1,0,0,1,1,0,0,0,0,0,0],"id":19,"left_children":[1,3,5,7,9,-1,11,-1,-1,13,15,-1,-1,-1,-1,-1,-1],"loss_changes":[1.4767407E3,7.4462744E2,9.220419E2,3.850699E2,1.1319045E2,0E0,6.1558813E2,0E0,0E0,1.4132327E3,9.694123E1,0E0,0E0,0E0,0E0,0E0,0E0],"parents":[2147483647,0,0,1,1,2,2,3,3,4,4,6,6,9,9,10,10],"right_children":[2,4,6,8,10,-1,12,-1,-1,14,16,-1,-1,-1,-1,-1,-1],"split_conditions":[2.2126827E0,-3.9616065E0,-1.9510725E-1,-1.8536347E0,-2.013381E0,-1.0343934E-2,2.2196102E0,1.1841834E0,-8.791848E-3,-2.0195224E0,4.203381E0,-7.300881E-3,1.3724262E0,-8.5078515E-3,1.3745369E0,-7.2949417E-3,-2.9201552E-1],"split_indices":[2,35,36,26,31,0,1,0,0,31,37,0,0,0,0,0,0],"split_type":[0,0,0,0,0,0,0,0,0,0,0,0,0,0,0,0,0],"sum_hessian":[9.71E2,9.64E2,7E0,2E0,9.62E2,3E0,4E0,1E0,1E0,2.5E1,9.37E2,1E0,3E0,2.4E1,1E0,9.35E2,2E0],"tree_param":{"num_deleted":"0","num_feature":"46","num_nodes":"17","size_leaf_vector":"0"}},{"base_weights":[5.485147E-2,-5.3139865E-2,1.307445E1,1.5280089E1,-1.0085176E-1,-1.9912073E-1,2.1078417E1,2.3091576E1,-1.7144105E-1,1.9060463E0,-1.5637255E-1,-1.4236718E-1,2.6419205E1,-1.619895E-1,2.680347E1,-1.3861169E-1,-5.645634E0],"categories":[],"categories_nodes":[],"categories_segments":[],"categories_sizes":[],"default_left":[1,1,1,1,1,0,1,0,0,1,1,0,0,0,0,0,0],"id":20,"left_children":[1,3,5,7,9,-1,11,-1,-1,13,15,-1,-1,-1,-1,-1,-1],"loss_changes":[1.3673304E3,7.075131E2,8.5412683E2,3.660572E2,1.0759991E2,0E0,5.704397E2,0E0,0E0,1.3430497E3,9.066678E1,0E0,0E0,0E0,0E0,0E0,0E0],"parents":[2147483647,0,0,1,1,2,2,3,3,4,4,6,6,9,9,10,10],"right_children":[2,4,6,8,10,-1,12,-1,-1,14,16,-1,-1,-1,-1,-1,-1],"split_conditions":[2.2126827E0,-3.9616065E0,-1.9510725E-1,-1.8536347E0,-2.013381E0,-9.956037E-3,2.2196102E0,1.1545788E0,-8.572052E-3,-2.0195224E0,4.203381E0,-7.118359E-3,1.3209603E0,-8.099475E-3,1.3401736E0,-6.9305846E-3,-2.8228173E-1],"split_indices":[2,35,36,26,31,0,1,0,0,31,37,0,0,0,0,0,0],"split_type":[0,0,0,0,0,0,0,0,0,0,0,0,0,0,0,0,0],"sum_hessian":[9.71E2,9.64E2,7E0,2E0,9.62E2,3E0,4E0,1E0,1E0,2.5E1,9.37E2,1E0,3E0,2.4E1,1E0,9.35E2,2E0],"tree_param":{"num_deleted":"0","num_feature":"46","num_nodes":"17","size_leaf_vector":"0"}},{"base_weights":[5.570227E-2,-4.8214607E-2,1.2583713E1,1.48980875E1,-9.472623E-2,-1.916537E-1,2.0287264E1,2.2514286E1,-1.6715503E-1,1.8619776E0,-1.4886223E-1,-1.3880801E-1,2.5428482E1,-1.54214E-1,2.6133383E1,-1.316885E-1,-5.457446E0],"categories":[],"categories_nodes":[],"categories_segments":[],"categories_sizes":[],"default_left":[1,1,1,1,1,0,1,0,0,1,1,0,0,0,0,0,0],"id":21,"left_children":[1,3,5,7,9,-1,11,-1,-1,13,15,-1,-1,-1,-1,-1,-1],"loss_changes":[1.266026E3,6.722568E2,7.912136E2,3.4798303E2,1.0228597E2,0E0,5.2860425E2,0E0,0E0,1.276361E3,8.479709E1,0E0,0E0,0E0,0E0,0E0,0E0],"parents":[2147483647,0,0,1,1,2,2,3,3,4,4,6,6,9,9,10,10],"right_children":[2,4,6,8,10,-1,12,-1,-1,14,16,-1,-1,-1,-1,-1,-1],"split_conditions":[2.2126827E0,-3.9616065E0,-1.9510725E-1,-1.8536347E0,-2.013381E0,-9.582685E-3,2.2196102E0,1.1257143E0,-8.357751E-3,-2.0195224E0,4.203381E0,-6.9404007E-3,1.2714242E0,-7.7107E-3,1.3066691E0,-6.5844255E-3,-2.728723E-1],"split_indices":[2,35,36,26,31,0,1,0,0,31,37,0,0,0,0,0,0],"split_type":[0,0,0,0,0,0,0,0,0,0,0,0,0,0,0,0,0],"sum_hessian":[9.71E2,9.64E2,7E0,2E0,9.62E2,3E0,4E0,1E0,1E0,2.5E1,9.37E2,1E0,3E0,2.4E1,1E0,9.35E2,2E0],"tree_param":{"num_deleted":"0","num_feature":"46","num_nodes":"17","size_leaf_vector":"0"}},{"base_weights":[5.640662E-2,-4.3589517E-2,1.211139E1,1.4525636E1,-8.893125E-2,-1.8446667E-1,1.9525797E1,2.195143E1,-1.6297615E-1,-1.8309967E-1,9.8186564E-1,-1.3533781E-1,2.4474915E1,-1.7801292E-1,-2.5138316E-1,3.6490196E1,4.6819843E-2],"categories":[],"categories_nodes":[],"categories_segments":[],"categories_sizes":[],"default_left":[1,1,1,1,1,0,1,0,0,1,1,0,0,0,0,0,0],"id":22,"left_children":[1,3,5,7,9,-1,11,-1,-1,13,15,-1,-1,-1,-1,-1,-1],"loss_changes":[1.1722269E3,6.3876483E2,7.3293384E2,3.308014E2,9.728414E1,0E0,4.8983875E2,0E0,0E0,2.6299286E-1,2.5880408E3,0E0,0E0,0E0,0E0,0E0,0E0],"parents":[2147483647,0,0,1,1,2,2,3,3,4,4,6,6,9,9,10,10],"right_children":[2,4,6,8,10,-1,12,-1,-1,14,16,-1,-1,-1,-1,-1,-1],"split_conditions":[2.2126827E0,-3.9616065E0,-1.9510725E-1,-1.8536347E0,5.4802835E-1,-9.223334E-3,2.2196102E0,1.0975715E0,-8.148807E-3,2.0768116E0,5.520798E-1,-6.7668906E-3,1.2237457E0,-8.900646E-3,-1.2569158E-2,1.8245099E0,2.3409922E-3],"split_indices":[2,35,36,26,37,0,1,0,0,3,37,0,0,0,0,0,0],"split_type":[0,0,0,0,0,0,0,0,0,0,0,0,0,0,0,0,0],"sum_hessian":[9.71E2,9.64E2,7E0,2E0,9.62E2,3E0,4E0,1E0,1E0,8.85E2,7.7E1,1E0,3E0,8.27E2,5.8E1,1E0,7.6E1],"tree_param":{"num_deleted":"0","num_feature":"46","num_nodes":"17","size_leaf_vector":"0"}},{"base_weights":[5.780702E-2,-3.841025E-2,1.165679E1,1.4162495E1,-8.2609944E-2,-1.7754918E-1,1.8792902E1,2.1402643E1,-1.5890174E-1,1.8269645E0,-1.3545251E-1,-1.3195437E-1,2.3557106E1,-1.3826711E-1,2.5478878E1,-1.1882818E-1,-5.2770915E0],"categories":[],"categories_nodes":[],"categories_segments":[],"categories_sizes":[],"default_left":[1,1,1,1,1,0,1,0,0,1,1,0,0,0,0,0,0],"id":23,"left_children":[1,3,5,7,9,-1,11,-1,-1,13,15,-1,-1,-1,-1,-1,-1],"loss_changes":[1.0852216E3,6.068769E2,6.7894604E2,3.1446808E2,9.742074E1,0E0,4.5391785E2,0E0,0E0,1.2120415E3,7.954969E1,0E0,0E0,0E0,0E0,0E0,0E0],"parents":[2147483647,0,0,1,1,2,2,3,3,4,4,6,6,9,9,10,10],"right_children":[2,4,6,8,10,-1,12,-1,-1,14,16,-1,-1,-1,-1,-1,-1],"split_conditions":[2.2126827E0,-3.9616065E0,-1.9510725E-1,-1.8536347E0,-2.013381E0,-8.877459E-3,2.2196102E0,1.0701321E0,-7.945087E-3,-2.0195224E0,4.203381E0,-6.5977187E-3,1.1778554E0,-6.913356E-3,1.2739439E0,-5.941409E-3,-2.638546E-1],"split_indices":[2,35,36,26,31,0,1,0,0,31,37,0,0,0,0,0,0],"split_type":[0,0,0,0,0,0,0,0,0,0,0,0,0,0,0,0,0],"sum_hessian":[9.71E2,9.64E2,7E0,2E0,9.62E2,3E0,4E0,1E0,1E0,2.5E1,9.37E2,1E0,3E0,2.4E1,1E0,9.35E2,2E0],"tree_param":{"num_deleted":"0","num_feature":"46","num_nodes":"17","size_leaf_vector":"0"}},{"base_weights":[5.8231264E-2,-3.4355633E-2,1.1219247E1,1.3808432E1,-7.7443905E-2,-1.708911E-1,1.8087507E1,2.0867577E1,-1.5492919E-1,1.7843482E0,-1.2896752E-1,-1.2865551E-1,2.2673714E1,-1.316303E-1,2.4841906E1,-1.1289313E-1,-5.1011887E0],"categories":[],"categories_nodes":[],"categories_segments":[],"categories_sizes":[],"default_left":[1,1,1,1,1,0,1,0,0,1,1,0,0,0,0,0,0],"id":24,"left_children":[1,3,5,7,9,-1,11,-1,-1,13,15,-1,-1,-1,-1,-1,-1],"loss_changes":[1.004815E3,5.76655E2,6.2893463E2,2.9894116E2,9.260712E1,0E0,4.2063232E2,0E0,0E0,1.1518923E3,7.439416E1,0E0,0E0,0E0,0E0,0E0,0E0],"parents":[2147483647,0,0,1,1,2,2,3,3,4,4,6,6,9,9,10,10],"right_children":[2,4,6,8,10,-1,12,-1,-1,14,16,-1,-1,-1,-1,-1,-1],"split_conditions":[2.2126827E0,-3.9616065E0,-1.9510725E-1,-1.8536347E0,-2.013381E0,-8.544556E-3,2.2196102E0,1.0433788E0,-7.7464595E-3,-2.0195224E0,4.203381E0,-6.4327754E-3,1.1336857E0,-6.581515E-3,1.2420954E0,-5.6446563E-3,-2.5505945E-1],"split_indices":[2,35,36,26,31,0,1,0,0,31,37,0,0,0,0,0,0],"split_type":[0,0,0,0,0,0,0,0,0,0,0,0,0,0,0,0,0],"sum_hessian":[9.71E2,9.64E2,7E0,2E0,9.62E2,3E0,4E0,1E0,1E0,2.5E1,9.37E2,1E0,3E0,2.4E1,1E0,9.35E2,2E0],"tree_param":{"num_deleted":"0","num_feature":"46","num_nodes":"17","size_leaf_vector":"0"}},{"base_weights":[5.8538985E-2,-3.05545E-2,1.0798123E1,1.3463221E1,-7.255945E-2,1.7408998E1,-1.6500182E-1,2.0345886E1,-1.5105596E-1,-1.6234425E-1,9.482339E-1,-1.2440085E-1,2.1823448E1,-2.1113217E-1,-1.5572754E-1,3.5583733E1,3.629585E-2],"categories":[],"categories_nodes":[],"categories_segments":[],"categories_sizes":[],"default_left":[1,1,1,1,1,1,0,0,0,1,1,0,0,0,0,0,0],"id":25,"left_children":[1,3,5,7,9,11,-1,-1,-1,13,15,-1,-1,-1,-1,-1,-1],"loss_changes":[9.3036566E2,5.479441E2,5.826793E2,2.841809E2,8.841454E1,3.8971643E2,0E0,0E0,0E0,2.5313568E-1,2.4623718E3,0E0,0E0,0E0,0E0,0E0,0E0],"parents":[2147483647,0,0,1,1,2,2,3,3,4,4,5,5,9,9,10,10],"right_children":[2,4,6,8,10,12,-1,-1,-1,14,16,-1,-1,-1,-1,-1,-1],"split_conditions":[2.2126827E0,-3.9616065E0,-4.2794654E-1,-1.8536347E0,5.4802835E-1,2.2187867E0,-8.250091E-3,1.0172943E0,-7.5527984E-3,-1.2473543E0,5.520798E-1,-6.2200422E-3,1.0911725E0,-1.0556608E-2,-7.786377E-3,1.7791866E0,1.8147925E-3],"split_indices":[2,35,42,26,37,1,0,0,0,42,37,0,0,0,0,0,0],"split_type":[0,0,0,0,0,0,0,0,0,0,0,0,0,0,0,0,0],"sum_hessian":[9.71E2,9.64E2,7E0,2E0,9.62E2,4E0,3E0,1E0,1E0,8.85E2,7.7E1,1E0,3E0,1.02E2,7.83E2,1E0,7.6E1],"tree_param":{"num_deleted":"0","num_feature":"46","num_nodes":"17","size_leaf_vector":"0"}},{"base_weights":[5.957202E-2,-2.6153821E-2,1.0392805E1,1.3126639E1,-6.71011E-2,1.6755539E1,-1.5881425E-1,1.9837238E1,-1.4727956E-1,1.7501944E0,-1.1740236E-1,-1.21290825E-1,2.100507E1,-1.1739388E-1,2.4219952E1,-1.0184438E-1,-4.932359E0],"categories":[],"categories_nodes":[],"categories_segments":[],"categories_sizes":[],"default_left":[1,1,1,1,1,1,0,0,0,1,1,0,0,0,0,0,0],"id":26,"left_children":[1,3,5,7,9,11,-1,-1,-1,13,15,-1,-1,-1,-1,-1,-1],"loss_changes":[8.612938E2,5.206018E2,5.397581E2,2.7014948E2,8.823549E1,3.6114075E2,0E0,0E0,0E0,1.093914E3,6.97642E1,0E0,0E0,0E0,0E0,0E0,0E0],"parents":[2147483647,0,0,1,1,2,2,3,3,4,4,5,5,9,9,10,10],"right_children":[2,4,6,8,10,12,-1,-1,-1,14,16,-1,-1,-1,-1,-1,-1],"split_conditions":[2.2126827E0,-3.9616065E0,-4.2794654E-1,-1.8536347E0,-2.013381E0,2.2187867E0,-7.940712E-3,9.9186194E-1,-7.3639783E-3,-2.0195224E0,4.203381E0,-6.064541E-3,1.0502535E0,-5.869694E-3,1.2109976E0,-5.092219E-3,-2.4661796E-1],"split_indices":[2,35,42,26,31,1,0,0,0,31,37,0,0,0,0,0,0],"split_type":[0,0,0,0,0,0,0,0,0,0,0,0,0,0,0,0,0],"sum_hessian":[9.71E2,9.64E2,7E0,2E0,9.62E2,4E0,3E0,1E0,1E0,2.5E1,9.37E2,1E0,3E0,2.4E1,1E0,9.35E2,2E0],"tree_param":{"num_deleted":"0","num_feature":"46","num_nodes":"17","size_leaf_vector":"0"}},{"base_weights":[5.9653256E-2,-2.2837926E-2,1.0002695E1,1.2798472E1,-6.275599E-2,-1.5331614E-1,1.6126965E1,1.9341307E1,-1.4359757E-1,1.7090358E0,-1.1180058E-1,-1.1734373E-1,2.0217379E1,-1.1175897E-1,2.3614452E1,1.0582831E0,-1.7194846E-1],"categories":[],"categories_nodes":[],"categories_segments":[],"categories_sizes":[],"default_left":[1,1,1,1,1,0,1,0,0,1,1,0,0,0,0,0,0],"id":27,"left_children":[1,3,5,7,9,-1,11,-1,-1,13,15,-1,-1,-1,-1,-1,-1],"loss_changes":[7.9747577E2,4.94692E2,5.0005768E2,2.5681085E2,8.38727E1,0E0,3.3460217E2,0E0,0E0,1.039656E3,6.619658E1,0E0,0E0,0E0,0E0,0E0,0E0],"parents":[2147483647,0,0,1,1,2,2,3,3,4,4,6,6,9,9,10,10],"right_children":[2,4,6,8,10,-1,12,-1,-1,14,16,-1,-1,-1,-1,-1,-1],"split_conditions":[2.2126827E0,-3.9616065E0,-1.9510725E-1,-1.8536347E0,-2.013381E0,-7.665807E-3,2.2196102E0,9.6706533E-1,-7.1798787E-3,-2.0195224E0,-1.1468115E0,-5.8671865E-3,1.0108689E0,-5.5879485E-3,1.1807226E0,5.2914154E-2,-8.597423E-3],"split_indices":[2,35,36,26,31,0,1,0,0,31,5,0,0,0,0,0,0],"split_type":[0,0,0,0,0,0,0,0,0,0,0,0,0,0,0,0,0],"sum_hessian":[9.71E2,9.64E2,7E0,2E0,9.62E2,3E0,4E0,1E0,1E0,2.5E1,9.37E2,1E0,3E0,2.4E1,1E0,4.5E1,8.92E2],"tree_param":{"num_deleted":"0","num_feature":"46","num_nodes":"17","size_leaf_vector":"0"}},{"base_weights":[5.9938774E-2,-1.9437652E-2,9.627228E0,1.2478512E1,-5.835189E-2,-1.4756678E-1,1.5521618E1,1.8857775E1,-1.4000764E-1,1.6687815E0,-1.06163315E-1,-1.1441014E-1,1.9459229E1,-1.0639454E-1,2.3024092E1,-9.0995215E-2,-4.803223E0],"categories":[],"categories_nodes":[],"categories_segments":[],"categories_sizes":[],"default_left":[1,1,1,1,1,0,1,0,0,1,1,0,0,0,0,0,0],"id":28,"left_children":[1,3,5,7,9,-1,11,-1,-1,13,15,-1,-1,-1,-1,-1,-1],"loss_changes":[7.383407E2,4.700541E2,4.6322217E2,2.4413077E2,7.969853E1,0E0,3.100691E2,0E0,0E0,9.88095E2,6.639119E1,0E0,0E0,0E0,0E0,0E0,0E0],"parents":[2147483647,0,0,1,1,2,2,3,3,4,4,6,6,9,9,10,10],"right_children":[2,4,6,8,10,-1,12,-1,-1,14,16,-1,-1,-1,-1,-1,-1],"split_conditions":[2.2126827E0,-3.9616065E0,-1.9510725E-1,-1.8536347E0,-2.013381E0,-7.3783393E-3,2.2196102E0,9.4288874E-1,-7.0003825E-3,-2.0195224E0,4.203381E0,-5.720507E-3,9.729614E-1,-5.319727E-3,1.1512046E0,-4.549761E-3,-2.4016117E-1],"split_indices":[2,35,36,26,31,0,1,0,0,31,37,0,0,0,0,0,0],"split_type":[0,0,0,0,0,0,0,0,0,0,0,0,0,0,0,0,0],"sum_hessian":[9.71E2,9.64E2,7E0,2E0,9.62E2,3E0,4E0,1E0,1E0,2.5E1,9.37E2,1E0,3E0,2.4E1,1E0,9.35E2,2E0],"tree_param":{"num_deleted":"0","num_feature":"46","num_nodes":"17","size_leaf_vector":"0"}},{"base_weights":[5.9819333E-2,-1.6562076E-2,9.265849E0,1.2166548E1,-5.4498494E-2,1.4939311E1,-1.4243972E-1,1.838633E1,-1.3650745E-1,-1.3877615E-1,9.0350795E-1,-1.1073648E-1,1.8729507E1,-1.310251E-1,-2.0193458E-1,3.4672504E1,1.4657265E-2],"categories":[],"categories_nodes":[],"categories_segments":[],"categories_sizes":[],"default_left":[1,1,1,1,1,1,0,0,0,1,1,0,0,0,0,0,0],"id":29,"left_children":[1,3,5,7,9,11,-1,-1,-1,13,15,-1,-1,-1,-1,-1,-1],"loss_changes":[6.836343E2,4.4667017E2,4.291485E2,2.3207687E2,7.7876595E1,2.872871E2,0E0,0E0,0E0,4.0727806E-1,2.3407083E3,0E0,0E0,0E0,0E0,0E0,0E0],"parents":[2147483647,0,0,1,1,2,2,3,3,4,4,5,5,9,9,10,10],"right_children":[2,4,6,8,10,12,-1,-1,-1,14,16,-1,-1,-1,-1,-1,-1],"split_conditions":[2.2126827E0,-3.9616065E0,-4.2794654E-1,-1.8536347E0,5.4802835E-1,2.2187867E0,-7.1219862E-3,9.193165E-1,-6.8253726E-3,2.0201943E0,5.520798E-1,-5.536824E-3,9.364754E-1,-6.5512555E-3,-1.0096729E-2,1.7336253E0,7.3286326E-4],"split_indices":[2,35,42,26,37,1,0,0,0,1,37,0,0,0,0,0,0],"split_type":[0,0,0,0,0,0,0,0,0,0,0,0,0,0,0,0,0],"sum_hessian":[9.71E2,9.64E2,7E0,2E0,9.62E2,4E0,3E0,1E0,1E0,8.85E2,7.7E1,1E0,3E0,7.91E2,9.4E1,1E0,7.6E1],"tree_param":{"num_deleted":"0","num_feature":"46","num_nodes":"17","size_leaf_vector":"0"}},{"base_weights":[6.0484763E-2,-1.300838E-2,8.918035E0,1.1862385E1,-4.9989868E-2,1.4378533E1,-1.3709825E-1,1.7926672E1,-1.3309476E-1,1.6358433E0,-9.666542E-2,-1.0796807E-1,1.8027151E1,-9.457293E-2,2.2448124E1,-8.1988625E-2,-4.6436048E0],"categories":[],"categories_nodes":[],"categories_segments":[],"categories_sizes":[],"default_left":[1,1,1,1,1,1,0,0,0,1,1,0,0,0,0,0,0],"id":30,"left_children":[1,3,5,7,9,11,-1,-1,-1,13,15,-1,-1,-1,-1,-1,-1],"loss_changes":[6.3285803E2,4.2439175E2,3.9753564E2,2.2061801E2,7.59339E1,2.6622485E2,0E0,0E0,0E0,9.3848456E2,6.221624E1,0E0,0E0,0E0,0E0,0E0,0E0],"parents":[2147483647,0,0,1,1,2,2,3,3,4,4,5,5,9,9,10,10],"right_children":[2,4,6,8,10,12,-1,-1,-1,14,16,-1,-1,-1,-1,-1,-1],"split_conditions":[2.2126827E0,-3.9616065E0,-4.2794654E-1,-1.8536347E0,-2.013381E0,2.2187867E0,-6.8549127E-3,8.9633363E-1,-6.654738E-3,-2.0195224E0,4.203381E0,-5.3984034E-3,9.013576E-1,-4.7286465E-3,1.1224062E0,-4.0994314E-3,-2.3218024E-1],"split_indices":[2,35,42,26,31,1,0,0,0,31,37,0,0,0,0,0,0],"split_type":[0,0,0,0,0,0,0,0,0,0,0,0,0,0,0,0,0],"sum_hessian":[9.71E2,9.64E2,7E0,2E0,9.62E2,4E0,3E0,1E0,1E0,2.5E1,9.37E2,1E0,3E0,2.4E1,1E0,9.35E2,2E0],"tree_param":{"num_deleted":"0","num_feature":"46","num_nodes":"17","size_leaf_vector":"0"}},{"base_weights":[6.019734E-2,-1.05226515E-2,8.583271E0,1.1565825E1,-4.6575114E-2,-1.3231076E-1,1.3839083E1,1.7478506E1,-1.2976739E-1,5.823689E-1,-1.6794726E-1,-1.0456145E-1,1.7351135E1,1.4989726E-1,3.380774E1,-1.5165626E-1,-4.4888177E0],"categories":[],"categories_nodes":[],"categories_segments":[],"categories_sizes":[],"default_left":[1,1,1,1,1,0,1,0,0,1,1,0,0,0,0,0,0],"id":31,"left_children":[1,3,5,7,9,-1,11,-1,-1,13,15,-1,-1,-1,-1,-1,-1],"loss_changes":[5.8596497E2,4.032871E2,3.682907E2,2.0972507E2,7.360966E1,0E0,2.4666821E2,0E0,0E0,2.2365012E3,5.6195465E1,0E0,0E0,0E0,0E0,0E0,0E0],"parents":[2147483647,0,0,1,1,2,2,3,3,4,4,6,6,9,9,10,10],"right_children":[2,4,6,8,10,-1,12,-1,-1,14,16,-1,-1,-1,-1,-1,-1],"split_conditions":[2.2126827E0,-3.9616065E0,-1.9510725E-1,-1.8536347E0,-8.820735E-1,-6.615538E-3,2.2196102E0,8.739253E-1,-6.4883693E-3,-8.874979E-1,4.203381E0,-5.2280724E-3,8.6755675E-1,7.494863E-3,1.690387E0,-7.582813E-3,-2.2444089E-1],"split_indices":[2,35,36,26,31,0,1,0,0,31,37,0,0,0,0,0,0],"split_type":[0,0,0,0,0,0,0,0,0,0,0,0,0,0,0,0,0],"sum_hessian":[9.71E2,9.64E2,7E0,2E0,9.62E2,3E0,4E0,1E0,1E0,1.55E2,8.07E2,1E0,3E0,1.54E2,1E0,8.05E2,2E0],"tree_param":{"num_deleted":"0","num_feature":"46","num_nodes":"17","size_leaf_vector":"0"}},{"base_weights":[6.0468346E-2,-7.5785927E-3,8.261071E0,1.1276681E1,-4.2724177E-2,-1.2734912E-1,1.3319594E1,1.7041544E1,-1.265232E-1,1.5898321E0,-8.7930724E-2,-1.0194741E-1,1.6700466E1,-9.72285E-2,2.1883173E1,9.830733E-1,-1.4300156E-1],"categories":[],"categories_nodes":[],"categories_segments":[],"categories_sizes":[],"default_left":[1,1,1,1,1,0,1,0,0,1,1,0,0,0,0,0,0],"id":32,"left_children":[1,3,5,7,9,-1,11,-1,-1,13,15,-1,-1,-1,-1,-1,-1],"loss_changes":[5.4246387E2,3.8319296E2,3.4116034E2,1.993699E2,7.121134E1,0E0,2.2858514E2,0E0,0E0,8.922661E2,5.5464836E1,0E0,0E0,0E0,0E0,0E0,0E0],"parents":[2147483647,0,0,1,1,2,2,3,3,4,4,6,6,9,9,10,10],"right_children":[2,4,6,8,10,-1,12,-1,-1,14,16,-1,-1,-1,-1,-1,-1],"split_conditions":[2.2126827E0,-3.9616065E0,-1.9510725E-1,-1.8536347E0,-2.013381E0,-6.367456E-3,2.2196102E0,8.520772E-1,-6.32616E-3,-2.0195224E0,-1.1468115E0,-5.0973706E-3,8.3502334E-1,-4.861425E-3,1.0941586E0,4.9153667E-2,-7.1500777E-3],"split_indices":[2,35,36,26,31,0,1,0,0,31,5,0,0,0,0,0,0],"split_type":[0,0,0,0,0,0,0,0,0,0,0,0,0,0,0,0,0],"sum_hessian":[9.71E2,9.64E2,7E0,2E0,9.62E2,3E0,4E0,1E0,1E0,2.5E1,9.37E2,1E0,3E0,2.4E1,1E0,4.5E1,8.92E2],"tree_param":{"num_deleted":"0","num_feature":"46","num_nodes":"17","size_leaf_vector":"0"}},{"base_weights":[6.032622E-2,-5.150906E-3,7.9509635E0,1.0994763E1,-3.9413203E-2,1.2819849E1,-1.228842E-1,1.6615505E1,-1.2336013E-1,-1.18035965E-1,8.5416603E-1,-9.877737E-2,1.60742E1,-1.09315924E-1,-1.8949111E-1,3.293797E1,9.727449E-3],"categories":[],"categories_nodes":[],"categories_segments":[],"categories_sizes":[],"default_left":[1,1,1,1,1,1,0,0,0,1,1,0,0,0,0,0,0],"id":33,"left_children":[1,3,5,7,9,11,-1,-1,-1,13,15,-1,-1,-1,-1,-1,-1],"loss_changes":[5.022308E2,3.6412476E2,3.1606042E2,1.8952603E2,6.7757034E1,2.1179651E2,0E0,0E0,0E0,5.313444E-1,2.1129182E3,0E0,0E0,0E0,0E0,0E0,0E0],"parents":[2147483647,0,0,1,1,2,2,3,3,4,4,5,5,9,9,10,10],"right_children":[2,4,6,8,10,12,-1,-1,-1,14,16,-1,-1,-1,-1,-1,-1],"split_conditions":[2.2126827E0,-3.9616065E0,-4.2794654E-1,-1.8536347E0,5.4802835E-1,2.2187867E0,-6.14421E-3,8.3077526E-1,-6.1680065E-3,2.0201943E0,5.520798E-1,-4.9388683E-3,8.0371E-1,-5.465796E-3,-9.474556E-3,1.6468985E0,4.8637248E-4],"split_indices":[2,35,42,26,37,1,0,0,0,1,37,0,0,0,0,0,0],"split_type":[0,0,0,0,0,0,0,0,0,0,0,0,0,0,0,0,0],"sum_hessian":[9.71E2,9.64E2,7E0,2E0,9.62E2,4E0,3E0,1E0,1E0,8.85E2,7.7E1,1E0,3E0,7.91E2,9.4E1,1E0,7.6E1],"tree_param":{"num_deleted":"0","num_feature":"46","num_nodes":"17","size_leaf_vector":"0"}},{"base_weights":[6.06532E-2,-2.347189E-3,7.652493E0,1.0719894E1,-3.574737E-2,1.233861E1,-1.18276045E-1,1.6200117E1,-1.2027612E-1,1.5577258E0,-7.9878025E-2,-9.630793E-2,1.5471416E1,-8.683332E-2,2.1335852E1,-6.603498E-2,-4.372284E0],"categories":[],"categories_nodes":[],"categories_segments":[],"categories_sizes":[],"default_left":[1,1,1,1,1,1,0,0,0,1,1,0,0,0,0,0,0],"id":34,"left_children":[1,3,5,7,9,11,-1,-1,-1,13,15,-1,-1,-1,-1,-1,-1],"loss_changes":[4.6491473E2,3.4597366E2,2.9277722E2,1.8016812E2,6.784357E1,1.96271E2,0E0,0E0,0E0,8.475364E2,5.544723E1,0E0,0E0,0E0,0E0,0E0,0E0],"parents":[2147483647,0,0,1,1,2,2,3,3,4,4,5,5,9,9,10,10],"right_children":[2,4,6,8,10,12,-1,-1,-1,14,16,-1,-1,-1,-1,-1,-1],"split_conditions":[2.2126827E0,-3.9616065E0,-4.2794654E-1,-1.8536347E0,-2.013381E0,2.2187867E0,-5.9138024E-3,8.1000584E-1,-6.0138064E-3,-2.0195224E0,4.203381E0,-4.815397E-3,7.7357084E-1,-4.341666E-3,1.0667926E0,-3.301749E-3,-2.186142E-1],"split_indices":[2,35,42,26,31,1,0,0,0,31,37,0,0,0,0,0,0],"split_type":[0,0,0,0,0,0,0,0,0,0,0,0,0,0,0,0,0],"sum_hessian":[9.71E2,9.64E2,7E0,2E0,9.62E2,4E0,3E0,1E0,1E0,2.5E1,9.37E2,1E0,3E0,2.4E1,1E0,9.35E2,2E0],"tree_param":{"num_deleted":"0","num_feature":"46","num_nodes":"17","size_leaf_vector":"0"}},{"base_weights":[6.009726E-2,-5.25654E-4,7.365224E0,1.0451897E1,-3.308717E-2,-1.14105955E-1,1.1875643E1,1.57951145E1,-1.1726922E-1,1.5207031E0,-7.612071E-2,-9.3369715E-2,1.4891238E1,-8.266532E-2,2.0802456E1,-6.273676E-2,-4.226541E0],"categories":[],"categories_nodes":[],"categories_segments":[],"categories_sizes":[],"default_left":[1,1,1,1,1,0,1,0,0,1,1,0,0,0,0,0,0],"id":35,"left_children":[1,3,5,7,9,-1,11,-1,-1,13,15,-1,-1,-1,-1,-1,-1],"loss_changes":[4.3046188E2,3.2878043E2,2.712343E2,1.7127234E2,6.450684E1,0E0,1.8185895E2,0E0,0E0,8.055292E2,5.1839844E1,0E0,0E0,0E0,0E0,0E0,0E0],"parents":[2147483647,0,0,1,1,2,2,3,3,4,4,6,6,9,9,10,10],"right_children":[2,4,6,8,10,-1,12,-1,-1,14,16,-1,-1,-1,-1,-1,-1],"split_conditions":[2.2126827E0,-3.9616065E0,-1.9510725E-1,-1.8536347E0,-2.013381E0,-5.705298E-3,2.2196102E0,7.8975576E-1,-5.863461E-3,-2.0195224E0,4.203381E0,-4.668486E-3,7.445619E-1,-4.133266E-3,1.0401229E0,-3.1368379E-3,-2.1132706E-1],"split_indices":[2,35,36,26,31,0,1,0,0,31,37,0,0,0,0,0,0],"split_type":[0,0,0,0,0,0,0,0,0,0,0,0,0,0,0,0,0],"sum_hessian":[9.71E2,9.64E2,7E0,2E0,9.62E2,3E0,4E0,1E0,1E0,2.5E1,9.37E2,1E0,3E0,2.4E1,1E0,9.35E2,2E0],"tree_param":{"num_deleted":"0","num_feature":"46","num_nodes":"17","size_leaf_vector":"0"}},{"base_weights":[5.9499398E-2,1.1642711E-3,7.0887365E0,1.0190599E1,-3.0579725E-2,-1.0982698E-1,1.142984E1,1.5400236E1,-1.1433749E-1,5.4962844E-1,-1.4256227E-1,-9.103547E-2,1.4332818E1,1.3875197E-1,3.211774E1,-1.2770887E-1,-4.0856566E0],"categories":[],"categories_nodes":[],"categories_segments":[],"categories_sizes":[],"default_left":[1,1,1,1,1,0,1,0,0,1,1,0,0,0,0,0,0],"id":36,"left_children":[1,3,5,7,9,-1,11,-1,-1,13,15,-1,-1,-1,-1,-1,-1],"loss_changes":[3.9856177E2,3.1244412E2,2.5125296E2,1.6281577E2,6.2647533E1,0E0,1.6852905E2,0E0,0E0,2.0189565E3,4.680148E1,0E0,0E0,0E0,0E0,0E0,0E0],"parents":[2147483647,0,0,1,1,2,2,3,3,4,4,6,6,9,9,10,10],"right_children":[2,4,6,8,10,-1,12,-1,-1,14,16,-1,-1,-1,-1,-1,-1],"split_conditions":[2.2126827E0,-3.9616065E0,-1.9510725E-1,-1.8536347E0,-8.820735E-1,-5.4913494E-3,2.2196102E0,7.7001184E-1,-5.7168747E-3,-8.874979E-1,4.203381E0,-4.5517734E-3,7.166409E-1,6.9375983E-3,1.605887E0,-6.3854433E-3,-2.0428284E-1],"split_indices":[2,35,36,26,31,0,1,0,0,31,37,0,0,0,0,0,0],"split_type":[0,0,0,0,0,0,0,0,0,0,0,0,0,0,0,0,0],"sum_hessian":[9.71E2,9.64E2,7E0,2E0,9.62E2,3E0,4E0,1E0,1E0,1.55E2,8.07E2,1E0,3E0,1.54E2,1E0,8.05E2,2E0],"tree_param":{"num_deleted":"0","num_feature":"46","num_nodes":"17","size_leaf_vector":"0"}},{"base_weights":[5.9480242E-2,3.3510842E-3,6.8226247E0,9.935834E0,-2.759471E-2,1.1000949E1,-1.059373E-1,1.501523E1,-1.1147905E-1,1.4778428E0,-6.9293834E-2,-8.830191E-2,1.3795338E1,-8.535747E-2,2.0278925E1,9.089238E-1,-1.1960595E-1],"categories":[],"categories_nodes":[],"categories_segments":[],"categories_sizes":[],"default_left":[1,1,1,1,1,1,0,0,0,1,1,0,0,0,0,0,0],"id":37,"left_children":[1,3,5,7,9,11,-1,-1,-1,13,15,-1,-1,-1,-1,-1,-1],"loss_changes":[3.6895764E2,2.9688486E2,2.3276364E2,1.5477673E2,6.055514E1,1.561565E2,0E0,0E0,0E0,7.6586725E2,4.6273502E1,0E0,0E0,0E0,0E0,0E0,0E0],"parents":[2147483647,0,0,1,1,2,2,3,3,4,4,5,5,9,9,10,10],"right_children":[2,4,6,8,10,12,-1,-1,-1,14,16,-1,-1,-1,-1,-1,-1],"split_conditions":[2.2126827E0,-3.9616065E0,-4.2794654E-1,-1.8536347E0,-2.013381E0,2.2187867E0,-5.296865E-3,7.507615E-1,-5.5739526E-3,-2.0195224E0,-1.1468115E0,-4.415096E-3,6.897669E-1,-4.2678737E-3,1.0139463E0,4.544619E-2,-5.9802975E-3],"split_indices":[2,35,42,26,31,1,0,0,0,31,5,0,0,0,0,0,0],"split_type":[0,0,0,0,0,0,0,0,0,0,0,0,0,0,0,0,0],"sum_hessian":[9.71E2,9.64E2,7E0,2E0,9.62E2,4E0,3E0,1E0,1E0,2.5E1,9.37E2,1E0,3E0,2.4E1,1E0,4.5E1,8.92E2],"tree_param":{"num_deleted":"0","num_feature":"46","num_nodes":"17","size_leaf_vector":"0"}},{"base_weights":[5.905189E-2,7.040498E0,8.4005715E-3,-1.732422E-1,1.2494114E1,-2.4787564E-2,6.392118E0,1.6695583E1,-5.5147715E-2,-9.751801E-2,8.007411E-1,-1.1480368E-1,1.0768333E1,-2.3437618E-1,-9.110126E-2,3.1292072E1,-1.6408125E-3],"categories":[],"categories_nodes":[],"categories_segments":[],"categories_sizes":[],"default_left":[1,1,1,0,1,1,1,0,0,1,1,0,0,0,0,0,0],"id":38,"left_children":[1,3,5,-1,7,9,11,-1,-1,13,15,-1,-1,-1,-1,-1,-1],"loss_changes":[3.4365897E2,2.7755127E2,2.0481876E2,0E0,2.1182214E2,5.783759E1,1.436147E2,0E0,0E0,7.5584126E-1,1.9083752E3,0E0,0E0,0E0,0E0,0E0,0E0],"parents":[2147483647,0,0,1,1,2,2,4,4,5,5,6,6,9,9,10,10],"right_children":[2,4,6,-1,8,10,12,-1,-1,14,16,-1,-1,-1,-1,-1,-1],"split_conditions":[-1.7357932E0,-8.457768E-1,2.2126827E0,-8.66211E-3,2.2160084E0,5.4802835E-1,2.2196102E0,8.347792E-1,-2.7573858E-3,-1.146688E0,5.520798E-1,-5.740184E-3,5.384167E-1,-1.1718809E-2,-4.555063E-3,1.5646037E0,-8.204063E-5],"split_indices":[37,30,2,0,0,37,1,0,0,5,37,0,0,0,0,0,0],"split_type":[0,0,0,0,0,0,0,0,0,0,0,0,0,0,0,0,0],"sum_hessian":[9.71E2,6E0,9.65E2,3E0,3E0,9.61E2,4E0,2E0,1E0,8.84E2,7.7E1,2E0,2E0,3.8E1,8.46E2,1E0,7.6E1],"tree_param":{"num_deleted":"0","num_feature":"46","num_nodes":"17","size_leaf_vector":"0"}},{"base_weights":[5.9087247E-2,6.806096E0,1.0134709E-2,-1.6674562E-1,1.20774145E1,-2.1938778E-2,6.1790466E0,1.6139065E1,-5.3769022E-2,1.4469924E0,-6.267546E-2,-1.1097689E-1,1.0409389E1,-7.688746E-2,1.9771994E1,-3.9797108E0,-5.0040398E-2],"categories":[],"categories_nodes":[],"categories_segments":[],"categories_sizes":[],"default_left":[1,1,1,0,1,1,1,0,0,1,1,0,0,0,0,0,0],"id":39,"left_children":[1,3,5,-1,7,9,11,-1,-1,13,15,-1,-1,-1,-1,-1,-1],"loss_changes":[3.209663E2,2.593063E2,1.912669E2,0E0,1.9795825E2,5.7656174E1,1.3419992E2,0E0,0E0,7.2757275E2,4.617484E1,0E0,0E0,0E0,0E0,0E0,0E0],"parents":[2147483647,0,0,1,1,2,2,4,4,5,5,6,6,9,9,10,10],"right_children":[2,4,6,-1,8,10,12,-1,-1,14,16,-1,-1,-1,-1,-1,-1],"split_conditions":[-1.7357932E0,-8.457768E-1,2.2126827E0,-8.337281E-3,2.2160084E0,-2.013381E0,2.2196102E0,8.0695325E-1,-2.6884512E-3,-2.0195224E0,-2.7462583E0,-5.5488446E-3,5.204694E-1,-3.844373E-3,9.885997E-1,-1.9898555E-1,-2.50202E-3],"split_indices":[37,30,2,0,0,31,1,0,0,31,28,0,0,0,0,0,0],"split_type":[0,0,0,0,0,0,0,0,0,0,0,0,0,0,0,0,0],"sum_hessian":[9.71E2,6E0,9.65E2,3E0,3E0,9.61E2,4E0,2E0,1E0,2.5E1,9.36E2,2E0,2E0,2.4E1,1E0,2E0,9.34E2],"tree_param":{"num_deleted":"0","num_feature":"46","num_nodes":"17","size_leaf_vector":"0"}},{"base_weights":[5.8287323E-2,6.5794954E0,1.09718535E-2,-1.6049266E-1,1.1674609E1,-2.0027632E-2,5.9730783E0,1.5601096E1,-5.2424796E-2,1.412518E0,-5.9756722E-2,-1.07277654E-1,1.0062408E1,-7.319686E-2,1.9277695E1,-3.8470538E0,-4.7541056E-2],"categories":[],"categories_nodes":[],"categories_segments":[],"categories_sizes":[],"default_left":[1,1,1,0,1,1,1,0,0,1,1,0,0,0,0,0,0],"id":40,"left_children":[1,3,5,-1,7,9,11,-1,-1,13,15,-1,-1,-1,-1,-1,-1],"loss_changes":[2.9984235E2,2.4226074E2,1.7865791E2,0E0,1.8500201E2,5.4835423E1,1.25402374E2,0E0,0E0,6.9151764E2,4.3166813E1,0E0,0E0,0E0,0E0,0E0,0E0],"parents":[2147483647,0,0,1,1,2,2,4,4,5,5,6,6,9,9,10,10],"right_children":[2,4,6,-1,8,10,12,-1,-1,14,16,-1,-1,-1,-1,-1,-1],"split_conditions":[-1.7357932E0,-8.457768E-1,2.2126827E0,-8.024633E-3,2.2160084E0,-2.013381E0,2.2196102E0,7.800548E-1,-2.6212397E-3,-2.0195224E0,-2.7462583E0,-5.363883E-3,5.031204E-1,-3.659843E-3,9.638848E-1,-1.923527E-1,-2.3770528E-3],"split_indices":[37,30,2,0,0,31,1,0,0,31,28,0,0,0,0,0,0],"split_type":[0,0,0,0,0,0,0,0,0,0,0,0,0,0,0,0,0],"sum_hessian":[9.71E2,6E0,9.65E2,3E0,3E0,9.61E2,4E0,2E0,1E0,2.5E1,9.36E2,2E0,2E0,2.4E1,1E0,2E0,9.34E2],"tree_param":{"num_deleted":"0","num_feature":"46","num_nodes":"17","size_leaf_vector":"0"}},{"base_weights":[5.746417E-2,6.360436E0,1.1730976E-2,-1.5447418E-1,1.1285236E1,-1.8230516E-2,5.773976E0,1.50810585E1,-5.111418E-2,5.1674545E-1,-1.2162335E-1,-1.0370173E-1,9.7269945E0,1.2637335E-1,3.051221E1,-3.7188187E0,-1.08066574E-1],"categories":[],"categories_nodes":[],"categories_segments":[],"categories_sizes":[],"default_left":[1,1,1,0,1,1,1,0,0,1,1,0,0,0,0,0,0],"id":41,"left_children":[1,3,5,-1,7,9,11,-1,-1,13,15,-1,-1,-1,-1,-1,-1],"loss_changes":[2.8010925E2,2.2633572E2,1.6688077E2,0E0,1.7289398E2,5.3273647E1,1.17181564E2,0E0,0E0,1.8228093E3,3.89526E1,0E0,0E0,0E0,0E0,0E0,0E0],"parents":[2147483647,0,0,1,1,2,2,4,4,5,5,6,6,9,9,10,10],"right_children":[2,4,6,-1,8,10,12,-1,-1,14,16,-1,-1,-1,-1,-1,-1],"split_conditions":[-1.7357932E0,-8.457768E-1,2.2126827E0,-7.723709E-3,2.2160084E0,-8.820735E-1,2.2196102E0,7.5405294E-1,-2.555709E-3,-8.874979E-1,-3.1699777E0,-5.1850867E-3,4.8634973E-1,6.3186674E-3,1.5256106E0,-1.8594094E-1,-5.4033287E-3],"split_indices":[37,30,2,0,0,31,1,0,0,31,26,0,0,0,0,0,0],"split_type":[0,0,0,0,0,0,0,0,0,0,0,0,0,0,0,0,0],"sum_hessian":[9.71E2,6E0,9.65E2,3E0,3E0,9.61E2,4E0,2E0,1E0,1.55E2,8.06E2,2E0,2E0,1.54E2,1E0,2E0,8.04E2],"tree_param":{"num_deleted":"0","num_feature":"46","num_nodes":"17","size_leaf_vector":"0"}},{"base_weights":[5.723039E-2,6.148668E0,1.3030293E-2,-1.4868139E-1,1.090885E1,-1.592545E-2,5.5815096E0,1.4578358E1,-4.9836323E-2,1.3727481E0,-5.4441556E-2,-1.00245014E-1,9.4027605E0,-7.574933E-2,1.8792593E1,8.6652386E-1,-1.0078982E-1],"categories":[],"categories_nodes":[],"categories_segments":[],"categories_sizes":[],"default_left":[1,1,1,0,1,1,1,0,0,1,1,0,0,0,0,0,0],"id":42,"left_children":[1,3,5,-1,7,9,11,-1,-1,13,15,-1,-1,-1,-1,-1,-1],"loss_changes":[2.616232E2,2.1145767E2,1.558462E2,0E0,1.615784E2,5.152855E1,1.09499664E2,0E0,0E0,6.574712E2,4.0083324E1,0E0,0E0,0E0,0E0,0E0,0E0],"parents":[2147483647,0,0,1,1,2,2,4,4,5,5,6,6,9,9,10,10],"right_children":[2,4,6,-1,8,10,12,-1,-1,14,16,-1,-1,-1,-1,-1,-1],"split_conditions":[-1.7357932E0,-8.457768E-1,2.2126827E0,-7.4340696E-3,2.2160084E0,-2.013381E0,2.2196102E0,7.289179E-1,-2.4918162E-3,-2.0195224E0,-1.1468115E0,-5.012251E-3,4.7013804E-1,-3.7874666E-3,9.396297E-1,4.3326195E-2,-5.039491E-3],"split_indices":[37,30,2,0,0,31,1,0,0,31,5,0,0,0,0,0,0],"split_type":[0,0,0,0,0,0,0,0,0,0,0,0,0,0,0,0,0],"sum_hessian":[9.71E2,6E0,9.65E2,3E0,3E0,9.61E2,4E0,2E0,1E0,2.5E1,9.36E2,2E0,2E0,2.4E1,1E0,4.4E1,8.92E2],"tree_param":{"num_deleted":"0","num_feature":"46","num_nodes":"17","size_leaf_vector":"0"}},{"base_weights":[5.6589294E-2,5.9439483E0,1.3868693E-2,-1.4310583E-1,1.0545015E1,-1.4116567E-2,5.395459E0,-1.6242142E-1,-4.257954E-2,1.4092414E1,-4.8590414E-2,-8.131596E-2,7.48519E-1,-9.690351E-2,9.089335E0,-2.5635663E-1,-7.316023E-2,2.9727743E1,-1.39091285E-2],"categories":[],"categories_nodes":[],"categories_segments":[],"categories_sizes":[],"default_left":[1,1,1,1,1,1,1,0,0,0,0,1,1,0,0,0,0,0,0],"id":43,"left_children":[1,3,5,7,9,11,13,-1,-1,-1,-1,15,17,-1,-1,-1,-1,-1,-1],"loss_changes":[2.4438675E2,1.9755765E2,1.4556079E2,8.510724E-4,1.5100372E2,4.9362064E1,1.0232132E2,0E0,0E0,0E0,0E0,1.244657E0,1.7237904E3,0E0,0E0,0E0,0E0,0E0,0E0],"parents":[2147483647,0,0,1,1,2,2,3,3,4,4,5,5,6,6,11,11,12,12],"right_children":[2,4,6,8,10,12,14,-1,-1,-1,-1,16,18,-1,-1,-1,-1,-1,-1],"split_conditions":[-1.7357932E0,-8.457768E-1,2.2126827E0,8.2318604E-1,2.2160084E0,5.4802835E-1,2.2196102E0,-8.121071E-3,-2.128977E-3,7.046207E-1,-2.4295207E-3,-1.146688E0,5.520798E-1,-4.8451754E-3,4.544668E-1,-1.2817832E-2,-3.6580116E-3,1.4863871E0,-6.9545646E-4],"split_indices":[37,30,2,0,0,37,1,0,0,0,0,5,37,0,0,0,0,0,0],"split_type":[0,0,0,0,0,0,0,0,0,0,0,0,0,0,0,0,0,0,0],"sum_hessian":[9.71E2,6E0,9.65E2,3E0,3E0,9.61E2,4E0,2E0,1E0,2E0,1E0,8.84E2,7.7E1,2E0,2E0,3.8E1,8.46E2,1E0,7.6E1],"tree_param":{"num_deleted":"0","num_feature":"46","num_nodes":"19","size_leaf_vector":"0"}},{"base_weights":[5.6445815E-2,5.7455993E0,1.516163E-2,-1.3851306E-1,1.0193313E1,-1.1883487E-2,5.21561E0,-1.5700738E-1,-4.1515052E-2,1.3622666E1,-4.7375657E-2,1.3435081E0,-4.948039E-2,-9.36734E-2,8.786357E0,-6.860167E-2,1.8323126E1,-3.6232789E0,-3.7960734E-2],"categories":[],"categories_nodes":[],"categories_segments":[],"categories_sizes":[],"default_left":[1,1,1,1,1,1,1,0,0,0,0,1,1,0,0,0,0,0,0],"id":44,"left_children":[1,3,5,7,9,11,13,-1,-1,-1,-1,15,17,-1,-1,-1,-1,-1,-1],"loss_changes":[2.2820853E2,1.846078E2,1.3592673E2,6.574765E-4,1.4112122E2,4.9088573E1,9.5613556E1,0E0,0E0,0E0,0E0,6.246612E2,3.8437737E1,0E0,0E0,0E0,0E0,0E0,0E0],"parents":[2147483647,0,0,1,1,2,2,3,3,4,4,5,5,6,6,11,11,12,12],"right_children":[2,4,6,8,10,12,14,-1,-1,-1,-1,16,18,-1,-1,-1,-1,-1,-1],"split_conditions":[-1.7357932E0,-8.457768E-1,2.2126827E0,8.2318604E-1,2.2160084E0,-2.013381E0,2.2196102E0,-7.850369E-3,-2.0757527E-3,6.8113333E-1,-2.3687829E-3,-2.0195224E0,-2.7462583E0,-4.68367E-3,4.3931785E-1,-3.4300834E-3,9.161563E-1,-1.8116395E-1,-1.8980367E-3],"split_indices":[37,30,2,0,0,31,1,0,0,0,0,31,28,0,0,0,0,0,0],"split_type":[0,0,0,0,0,0,0,0,0,0,0,0,0,0,0,0,0,0,0],"sum_hessian":[9.71E2,6E0,9.65E2,3E0,3E0,9.61E2,4E0,2E0,1E0,2E0,1E0,2.5E1,9.36E2,2E0,2E0,2.4E1,1E0,2E0,9.34E2],"tree_param":{"num_deleted":"0","num_feature":"46","num_nodes":"19","size_leaf_vector":"0"}},{"base_weights":[5.550946E-2,5.553868E0,1.5608819E-2,-1.3406894E-1,9.853337E0,-1.053083E-2,5.0417557E0,-1.5177381E-1,-4.0477175E-2,1.3168578E1,-4.6191264E-2,1.3114375E0,-4.7201745E-2,-9.055095E-2,8.493477E0,-6.5308794E-2,1.7865047E1,-3.5025032E0,-3.6064733E-2],"categories":[],"categories_nodes":[],"categories_segments":[],"categories_sizes":[],"default_left":[1,1,1,1,1,1,1,0,0,0,0,1,1,0,0,0,0,0,0],"id":45,"left_children":[1,3,5,7,9,11,13,-1,-1,-1,-1,15,17,-1,-1,-1,-1,-1,-1],"loss_changes":[2.1315846E2,1.7250682E2,1.2696783E2,4.8474222E-4,1.3188553E2,4.669753E1,8.9345535E1,0E0,0E0,0E0,0E0,5.937099E2,3.593107E1,0E0,0E0,0E0,0E0,0E0,0E0],"parents":[2147483647,0,0,1,1,2,2,3,3,4,4,5,5,6,6,11,11,12,12],"right_children":[2,4,6,8,10,12,14,-1,-1,-1,-1,16,18,-1,-1,-1,-1,-1,-1],"split_conditions":[-1.7357932E0,-8.457768E-1,2.2126827E0,8.2318604E-1,2.2160084E0,-2.013381E0,2.2196102E0,-7.5886906E-3,-2.0238587E-3,6.584289E-1,-2.3095633E-3,-2.0195224E0,-2.7462583E0,-4.527548E-3,4.2467386E-1,-3.2654398E-3,8.932524E-1,-1.7512517E-1,-1.8032367E-3],"split_indices":[37,30,2,0,0,31,1,0,0,0,0,31,28,0,0,0,0,0,0],"split_type":[0,0,0,0,0,0,0,0,0,0,0,0,0,0,0,0,0,0,0],"sum_hessian":[9.71E2,6E0,9.65E2,3E0,3E0,9.61E2,4E0,2E0,1E0,2E0,1E0,2.5E1,9.36E2,2E0,2E0,2.4E1,1E0,2E0,9.34E2],"tree_param":{"num_deleted":"0","num_feature":"46","num_nodes":"19","size_leaf_vector":"0"}},{"base_weights":[5.4564964E-2,5.3685327E0,1.6001465E-2,-1.2976862E-1,9.524701E0,-9.263065E-3,4.873697E0,-1.4671467E-1,-3.9465245E-2,1.2729626E1,-4.503648E-2,4.8428968E-1,-1.0465955E-1,-8.753259E-2,8.210361E0,1.1339605E-1,2.89864E1,-3.385753E0,-9.230186E-2],"categories":[],"categories_nodes":[],"categories_segments":[],"categories_sizes":[],"default_left":[1,1,1,1,1,1,1,0,0,0,0,1,1,0,0,0,0,0,0],"id":46,"left_children":[1,3,5,7,9,11,13,-1,-1,-1,-1,15,17,-1,-1,-1,-1,-1,-1],"loss_changes":[1.991014E2,1.6119907E2,1.18599785E2,3.310144E-4,1.23254456E2,4.5344723E1,8.3488434E1,0E0,0E0,0E0,0E0,1.6458282E3,3.2408703E1,0E0,0E0,0E0,0E0,0E0,0E0],"parents":[2147483647,0,0,1,1,2,2,3,3,4,4,5,5,6,6,11,11,12,12],"right_children":[2,4,6,8,10,12,14,-1,-1,-1,-1,16,18,-1,-1,-1,-1,-1,-1],"split_conditions":[-1.7357932E0,-8.457768E-1,2.2126827E0,8.2318604E-1,2.2160084E0,-8.820735E-1,2.2196102E0,-7.3357336E-3,-1.9732623E-3,6.364813E-1,-2.2518241E-3,-8.874979E-1,-3.1699777E0,-4.3766294E-3,4.1051802E-1,5.6698024E-3,1.4493201E0,-1.6928765E-1,-4.615093E-3],"split_indices":[37,30,2,0,0,31,1,0,0,0,0,31,26,0,0,0,0,0,0],"split_type":[0,0,0,0,0,0,0,0,0,0,0,0,0,0,0,0,0,0,0],"sum_hessian":[9.71E2,6E0,9.65E2,3E0,3E0,9.61E2,4E0,2E0,1E0,2E0,1E0,1.55E2,8.06E2,2E0,2E0,1.54E2,1E0,2E0,8.04E2],"tree_param":{"num_deleted":"0","num_feature":"46","num_nodes":"19","size_leaf_vector":"0"}},{"base_weights":[5.4215465E-2,5.18938E0,1.6948003E-2,-1.2560746E-1,9.207023E0,-7.4682203E-3,4.71124E0,-1.418242E-1,-3.8478613E-2,1.2305305E1,-4.391057E-2,1.2746441E0,-4.3036476E-2,-8.461483E-2,7.9366813E0,-6.761698E-2,1.7415586E1,7.9969937E-1,-8.545537E-2],"categories":[],"categories_nodes":[],"categories_segments":[],"categories_sizes":[],"default_left":[1,1,1,1,1,1,1,0,0,0,0,1,1,0,0,0,0,0,0],"id":47,"left_children":[1,3,5,7,9,11,13,-1,-1,-1,-1,15,17,-1,-1,-1,-1,-1,-1],"loss_changes":[1.8592813E2,1.5063252E2,1.107551E2,1.9458681E-4,1.1518826E2,4.392446E1,7.80153E1,0E0,0E0,0E0,0E0,5.644769E2,3.3564144E1,0E0,0E0,0E0,0E0,0E0,0E0],"parents":[2147483647,0,0,1,1,2,2,3,3,4,4,5,5,6,6,11,11,12,12],"right_children":[2,4,6,8,10,12,14,-1,-1,-1,-1,16,18,-1,-1,-1,-1,-1,-1],"split_conditions":[-1.7357932E0,-8.457768E-1,2.2126827E0,8.2318604E-1,2.2160084E0,-2.013381E0,2.2196102E0,-7.09121E-3,-1.9239307E-3,6.1526525E-1,-2.1955285E-3,-2.0195224E0,-1.1468115E0,-4.2307414E-3,3.9683408E-1,-3.3808488E-3,8.7077934E-1,3.9984968E-2,-4.2727687E-3],"split_indices":[37,30,2,0,0,31,1,0,0,0,0,31,5,0,0,0,0,0,0],"split_type":[0,0,0,0,0,0,0,0,0,0,0,0,0,0,0,0,0,0,0],"sum_hessian":[9.71E2,6E0,9.65E2,3E0,3E0,9.61E2,4E0,2E0,1E0,2E0,1E0,2.5E1,9.36E2,2E0,2E0,2.4E1,1E0,4.4E1,8.92E2],"tree_param":{"num_deleted":"0","num_feature":"46","num_nodes":"19","size_leaf_vector":"0"}},{"base_weights":[5.3459182E-2,5.016205E0,1.7441917E-2,-1.2158086E-1,8.89994E0,-6.1560273E-3,4.554198E0,-1.3709672E-1,-3.751665E-2,1.1895127E1,-4.2812806E-2,-6.8222284E-2,6.9813615E-1,-8.179434E-2,7.6721244E0,-2.757789E-1,-5.858482E-2,2.8241747E1,-2.6348991E-2],"categories":[],"categories_nodes":[],"categories_segments":[],"categories_sizes":[],"default_left":[1,1,1,1,1,1,1,0,0,0,0,1,1,0,0,0,0,0,0],"id":48,"left_children":[1,3,5,7,9,11,13,-1,-1,-1,-1,15,17,-1,-1,-1,-1,-1,-1],"loss_changes":[1.736522E2,1.4075862E2,1.0344617E2,7.390231E-5,1.0765015E2,4.2099323E1,7.290095E1,0E0,0E0,0E0,0E0,1.7541256E0,1.5572292E3,0E0,0E0,0E0,0E0,0E0,0E0],"parents":[2147483647,0,0,1,1,2,2,3,3,4,4,5,5,6,6,11,11,12,12],"right_children":[2,4,6,8,10,12,14,-1,-1,-1,-1,16,18,-1,-1,-1,-1,-1,-1],"split_conditions":[-1.7357932E0,-8.457768E-1,2.2126827E0,8.2318604E-1,2.2160084E0,5.4802835E-1,2.2196102E0,-6.854836E-3,-1.8758326E-3,5.9475636E-1,-2.1406403E-3,-1.146688E0,5.520798E-1,-4.089717E-3,3.8360623E-1,-1.3788945E-2,-2.9292412E-3,1.4120873E0,-1.3174496E-3],"split_indices":[37,30,2,0,0,37,1,0,0,0,0,5,37,0,0,0,0,0,0],"split_type":[0,0,0,0,0,0,0,0,0,0,0,0,0,0,0,0,0,0,0],"sum_hessian":[9.71E2,6E0,9.65E2,3E0,3E0,9.61E2,4E0,2E0,1E0,2E0,1E0,8.84E2,7.7E1,2E0,2E0,3.8E1,8.46E2,1E0,7.6E1],"tree_param":{"num_deleted":"0","num_feature":"46","num_nodes":"19","size_leaf_vector":"0"}},{"base_weights":[5.3211585E-2,4.8488064E0,1.8405812E-2,-1.1768449E-1,8.603096E0,-4.3991082E-3,4.4023914E0,1.1498623E1,-4.1742485E-2,1.2470279E0,-3.9119177E-2,-7.906786E-2,7.416387E0,-6.155929E-2,1.6980854E1,-3.298673E0,-2.8618876E-2],"categories":[],"categories_nodes":[],"categories_segments":[],"categories_sizes":[],"default_left":[1,1,1,0,1,1,1,0,0,1,1,0,0,0,0,0,0],"id":49,"left_children":[1,3,5,-1,7,9,11,-1,-1,13,15,-1,-1,-1,-1,-1,-1],"loss_changes":[1.6215152E2,1.3153197E2,9.659661E1,0E0,1.0060544E2,4.184733E1,6.812188E1,0E0,0E0,5.3636145E2,3.1975634E1,0E0,0E0,0E0,0E0,0E0,0E0],"parents":[2147483647,0,0,1,1,2,2,4,4,5,5,6,6,9,9,10,10],"right_children":[2,4,6,-1,8,10,12,-1,-1,14,16,-1,-1,-1,-1,-1,-1],"split_conditions":[-1.7357932E0,-8.457768E-1,2.2126827E0,-5.8842245E-3,2.2160084E0,-2.013381E0,2.2196102E0,5.7493114E-1,-2.0871244E-3,-2.0195224E0,-2.7462583E0,-3.953393E-3,3.7081936E-1,-3.0779645E-3,8.490427E-1,-1.6493365E-1,-1.4309438E-3],"split_indices":[37,30,2,0,0,31,1,0,0,31,28,0,0,0,0,0,0],"split_type":[0,0,0,0,0,0,0,0,0,0,0,0,0,0,0,0,0],"sum_hessian":[9.71E2,6E0,9.65E2,3E0,3E0,9.61E2,4E0,2E0,1E0,2.5E1,9.36E2,2E0,2E0,2.4E1,1E0,2E0,9.34E2],"tree_param":{"num_deleted":"0","num_feature":"46","num_nodes":"17","size_leaf_vector":"0"}}]},"name":"gbtree"},"learner_model_param":{"base_score":"5E-1","boost_from_average":"1","num_class":"0","num_feature":"46","num_target":"1"},"objective":{"name":"reg:squarederror","reg_loss_param":{"scale_pos_weight":"1"}}},"version":[1,7,6]}